{"learner":{"attributes":{},"feature_names":[],"feature_types":[],"gradient_booster":{"model":{"boosted_rounds":10,"weights":[1.9512987E-1,2.6547253E-2,1.1520063E-1,-1.4175998E-1,-4.7149587E-2,3.6815368E-2,-1.4801547E-1,1.1374916E-2,1.8547644E-1,1.0635059E-2,5.9142705E-2,4.5270517E-2,6.9894805E-4,-4.2127084E-2,4.368914E-2,-8.974989E-3,1.0794178E-2,5.48177E-2,8.859295E-3,-2.2368612E-2,4.1444078E-2,1.851656E-1,-2.3360197E-1,-9.180328E-2,8.2795955E-2,4.3656323E-2,9.438835E-2,-6.1512157E-2,8.980648E-2,6.654868E-2,2.2974113E-2,-7.9419784E-2,8.3409496E-2,1.8015301E-1,2.0194037E-2,-1.0277363E-3,-2.2497353E-1,-1.0507632E-1,7.296064E-2,1.9820839E-1,2.915393E-2,-2.2423754E-3,1.8848985E-2,-9.081689E-2,2.2976527E-2,7.464402E-2,-1.2873395E-1,-9.0721965E-2,-4.6010904E-2,1.088409E-1,-9.06551E-2,-5.324765E-2,-3.8707522E-1,-3.4743068E-1,-2.2988075E-2,-3.20184E-2,-6.346169E-2,5.9950277E-3,-6.697834E-2,-1.0615314E-1,5.4250427E-2,-6.3452065E-2,5.1392663E-2,-1.0538585E-1,-8.578124E-2,1.4094734E-1,1.8885484E-1,-9.408978E-2,3.7886545E-2,1.4534469E-1,1.1487648E-2,-6.69891E-5,-7.4743554E-2,-3.618284E-2,-7.252445E-2,-9.298638E-2,7.229261E-2,-9.653204E-2,-1.0053284E-1,-1.7787835E-1,1.672679E-1,-6.8602E-2,7.545083E-2,-2.2666793E-2,4.8257057E-2,2.381454E-2,-8.269739E-3,1.1635647E-1,3.8627128E-4,3.493192E-2,6.583164E-2,-6.5758633E-3,-3.9388916E-1,8.045823E-3,-7.134944E-3,9.424709E-3,6.231227E-2,1.5335856E-1,7.140829E-2,9.231454E-3,1.9691165E-1,1.4739059E-1,1.6644181E-1,-6.3532884E-3,-2.5768703E-1,6.542064E-2,1.5755539E-1,1.3771725E-1,4.411648E-2,1.034483E-1,3.619916E-2,-3.193683E-1,5.352257E-3,7.5756304E-2,-2.5424894E-2,-5.0950672E-2,-1.6259962E-1,-3.3875123E-2,8.882761E-2,2.934886E-4,-1.3873388E-1,-1.4492365E-2,-9.321368E-2,5.538756E-2,2.2324851E-1,-3.508929E-2,-2.826045E-2,-7.279593E-2,-7.9517715E-2,5.6277987E-2,2.066724E-2,-1.614706E-1,5.3556457E-2,-2.9933998E-1,-4.8269155E-3,3.3154685E-2,1.0567761E-1,9.134629E-3,1.431172E-1,1.9207088E-2,-7.9709515E-2,6.1595365E-2,2.6278896E-4,4.1483683E-3,-1.6796205E-2,-8.671783E-2,-2.2024347E-2,-1.3101046E-1,1.12741E-1,3.0479646E-1,-4.6426427E-2,6.622565E-2,4.7622055E-2,-1.6521197E-2,7.996947E-2,5.705227E-2,-8.7598294E-2,-4.157999E-2,6.735514E-2,1.0011457E-1,-3.4374774E-2,4.2737197E-2,1.7528076E-1,-3.3439952E-1,-2.0709159E-2,-2.4723887E-2,-1.4654163E-1,1.4045641E-2,-1.0233389E-2,-5.4563146E-2,5.0555237E-2,-1.2529947E-1,1.6900186E-1,1.505754E-2,2.2704694E-2,-6.956695E-2,9.421929E-2,-3.8956785E-1,1.1263521E-1,2.5158745E-1,-1.2758179E-1,3.2674376E-2,-1.18266664E-1,5.3827606E-2,-1.0277799E-2,-3.5351172E-2,-2.7244179E-2,-2.2645878E-2,-1.6313364E-1,-2.5501467E-2,-3.773492E-2,-2.565198E-1,2.1614727E-1,4.1482333E-2,-3.0181706E-2,1.14476986E-1,-1.20453596E-1,-1.2162568E-1,8.569564E-2,7.975448E-3,9.64634E-3,-8.828448E-3,6.0883246E-2,-2.1030972E-2,8.255462E-2,-3.2307488E-1,-1.4320172E-2,1.0147209E-2,-1.06473796E-1,-6.945766E-2,-2.0681396E-2,-1.202315E-1,-4.6679564E-2,-2.0626473E-1,-4.4825334E-2,7.977809E-3,-6.958773E-2,-1.46139E-1,2.1723625E-3,-4.884999E-2,3.3841005E-3,1.8109934E-1,-1.2653705E-1,1.4464605E-1,1.796952E-1,1.9182545E-1,-1.6021234E-1,-1.5277378E-3,3.0514615E-2,2.0946676E-2,1.5414411E-2,-9.693475E-2,-1.1625541E-2,-1.10483535E-1,3.8618866E-2,4.8112564E-2,-1.934761E-1,-1.0814378E-1,2.807946E-1,-1.5695967E-1,-3.997464E-1,-5.050593E-2,-8.721123E-3,1.7287733E-1,2.015043E-1,2.9296575E-2,6.0727984E-2,1.5092592E-1,-1.1759013E-1,-5.0979847E-1,1.9453573E-1,5.781741E-2,-5.0768036E-1,-1.5032642E-1,1.7527798E-2,-3.8878682E-1,4.6593063E-3,1.960948E-2,1.270851E-1,-1.6819859E-1,-6.659874E-2,-3.538756E-2,3.4130847E-3,-1.0303548E-2,1.6840357E-2,-1.0114601E-2,6.4298734E-2,-1.845618E-1,2.1772468E-3,-1.0008103E-1,-9.621002E-2,2.1693435E-1,2.835999E-2,9.3050174E-2,-2.9175216E-2,1.1810208E-1,2.3055762E-2,2.3103002E-2,-2.8537538E-2,-5.526173E-3,1.0019708E-1,-7.4502334E-2,2.784586E-1,-3.0198726E-1,-2.98399E-1,1.4786422E-1,-3.6297768E-1,3.840891E-2,5.7484157E-2,-8.91288E-2,1.722872E-2,-2.4397978E-1,2.776363E-2,-1.3828862E-1,-2.1809302E-2,1.9561453E-2,-1.4600006E-1,2.0502025E-1,-7.221112E-2,-5.4569836E-3,2.9705899E-2,5.633406E-3,-1.743466E-2,-5.295837E-1,-4.9493715E-2,7.390572E-2,-3.0325998E-2,6.0576056E-3,-1.02613516E-1,-3.064823E-1,4.026107E-2,7.405416E-2,4.491389E-2,1.852891E-3,6.1658043E-2,-4.0080327E-1,1.4298792E-1,-9.924679E-2,-8.9337684E-2,-9.58319E-2,-4.276936E-2,7.904934E-2,3.0764319E-2,6.8389975E-2,4.2947236E-2,1.2482398E-2,-3.5688138E-1,6.191859E-2,-4.220016E-3,8.512528E-2,-1.572352E-1,-1.5435654E-1,6.7559496E-2,1.49887055E-2,1.4593806E-2,-2.3158936E-2,5.3847373E-2,5.608626E-2,3.3961523E-2,-1.2483466E-3,9.186114E-3,-7.117195E-2,-1.7298333E-1,-1.3316002E-1,-2.6740367E-2,-1.0601823E-1,2.5580605E-2,6.8460666E-3,-1.4777719E-2,-1.1488531E-1,3.901583E-2,5.814037E-2,7.086009E-2,1.7887989E-1,-4.527211E-1,-1.4257115E-1,-8.0423735E-2,-6.1341666E-2,2.55137E-2,-3.735347E-2,-6.608043E-2,1.118841E-2,-1.5596802E-2,-7.610397E-3,4.786897E-3,2.9290395E-2,1.9475888E-2,8.460006E-2,2.4023268E-1,-8.634118E-3,8.847969E-2,1.912358E-2,-1.5463495E-1,-1.7753705E-2,-1.9340037E-1,2.3392892E-1,4.6383765E-2,-1.5682448E-1,2.7025908E-1,1.051449E-1,3.0568708E-4,-9.930658E-2,7.0104845E-2,-1.1246049E-2,-1.55834155E-2,1.0312846E-1,1.28951175E-2,-1.705868E-1,-1.08192535E-2,-8.124298E-2,6.59297E-2,-6.099827E-2,-1.16638675E-1,2.6045846E-2,-7.009421E-4,1.4129922E-1,5.708298E-2,-1.7446527E-1,1.8696634E-2,-6.0986098E-2,-1.0725705E-1,4.970749E-2,-7.90459E-2,-5.7327382E-2,-2.5402387E-3,4.2198688E-2,8.480125E-2,-2.8831828E-2,2.681576E-2,6.1785292E-2,-2.7530555E-2,-8.0965295E-2,-7.195465E-2,1.02432715E-2,-3.6504954E-1,1.3184328E-1,-2.5147647E-1,6.479119E-3,-7.122704E-3,4.078835E-2,7.9930454E-2,-5.2506033E-2,-1.1944552E-3,3.2201428E-3,1.0733895E-2,4.0363982E-2,-1.19329714E-4,4.4617336E-4,6.361246E-2,1.4941365E-3,1.3930163E-2,9.9701196E-2,5.4617144E-2,3.6558278E-2,-3.78628E-2,-2.7843595E-1,-1.787038E-1,-8.337897E-2,9.936808E-2,-1.3453782E-1,2.3777325E-1,7.771733E-2,6.1601028E-2,-3.6607987E-1,7.376837E-2,-1.15374E-2,8.148279E-2,4.55884E-2,2.2363238E-2,-1.6356112E-2,3.1700388E-2,-8.30528E-2,1.7716525E-1,-3.1739913E-2,-4.0394923E-1,-9.0539455E-2,-7.5212866E-2,-1.21954875E-2,-4.8818707E-4,4.3720827E-2,7.212229E-2,-3.9141525E-2,-8.161229E-2,-1.3983631E-1,4.592815E-2,4.460235E-2,2.7626312E-1,-1.0710683E-2,-1.8696273E-3,-1.2048062E-1,6.908263E-3,2.5474723E-2,1.4928466E-1,-8.6689904E-2,7.1034566E-2,5.8267303E-2,2.4121118E-1,-2.0588273E-3,4.756551E-3,-1.280161E-1,-2.027741E-3,2.0454124E-2,1.5735827E-1,8.755166E-3,-3.962445E-1,-2.5037944E-1,-8.10217E-2,5.73266E-5,1.4317444E-3,8.631418E-2,-9.46622E-2,-3.0739993E-2,-1.3605766E-1,-2.4410559E-2,7.410876E-2,2.4057627E-2,3.718281E-1,-2.75624E-2,-1.6515715E-1,1.19727375E-2,-2.6871562E-2]},"name":"gblinear"},"learner_model_param":{"base_score":"6.084656E-1","boost_from_average":"1","num_class":"0","num_feature":"500","num_target":"1"},"objective":{"name":"reg:squarederror","reg_loss_param":{"scale_pos_weight":"1"}}},"version":[3,0,2]}