{"args": "<tunetables_light.scripts.transformer_prediction_interface.TuneTablesClassifierLight.__init__.<locals>.Args object at 0x7b294ed9ca00>", "config": {"lr": 0.1, "dropout": 0.0, "emsize": 512, "batch_size": 4, "nlayers": 12, "num_features": 100, "nhead": 4, "nhid_factor": 2, "bptt": 1152, "eval_positions": [1094], "seq_len_used": 50, "sampling": "normal", "epochs": 10, "num_steps": 100, "verbose": true, "mix_activations": false, "pre_sample_causes": true, "multiclass_type": "rank", "nan_prob_unknown_reason_reason_prior": 0.5, "categorical_feature_p": 0.2, "nan_prob_no_reason": 0.0, "nan_prob_unknown_reason": 0.0, "nan_prob_a_reason": 0.0, "max_num_classes": 10, "num_classes": 2, "noise_type": "Gaussian", "balanced": false, "normalize_to_ranking": false, "set_value_to_nan": 0.1, "normalize_by_used_features": true, "num_features_used": {"uniform_int_sampler_f(3,max_features)": "<function <lambda>.<locals>.<lambda> at 0x7b294edb4940>"}, "num_categorical_features_sampler_a": -1.0, "differentiable_hyperparameters": {"prior_bag_exp_weights_1": {"distribution": "uniform", "min": 2.0, "max": 10.0}, "num_layers": {"distribution": "meta_gamma", "max_alpha": 2, "max_scale": 3, "round": true, "lower_bound": 2}, "prior_mlp_hidden_dim": {"distribution": "meta_gamma", "max_alpha": 3, "max_scale": 100, "round": true, "lower_bound": 4}, "prior_mlp_dropout_prob": {"distribution": "meta_beta", "scale": 0.6, "min": 0.1, "max": 5.0}, "noise_std": {"distribution": "meta_trunc_norm_log_scaled", "max_mean": 0.3, "min_mean": 0.0001, "round": false, "lower_bound": 0.0}, "init_std": {"distribution": "meta_trunc_norm_log_scaled", "max_mean": 10.0, "min_mean": 0.01, "round": false, "lower_bound": 0.0}, "num_causes": {"distribution": "meta_gamma", "max_alpha": 3, "max_scale": 7, "round": true, "lower_bound": 2}, "is_causal": {"distribution": "meta_choice", "choice_values": [true, false]}, "pre_sample_weights": {"distribution": "meta_choice", "choice_values": [true, false]}, "y_is_effect": {"distribution": "meta_choice", "choice_values": [true, false]}, "prior_mlp_activations": {"distribution": "meta_choice_mixed", "choice_values": ["<class 'torch.nn.modules.activation.Tanh'>", "<class 'torch.nn.modules.linear.Identity'>", "<class 'torch.nn.modules.activation.ReLU'>"]}, "block_wise_dropout": {"distribution": "meta_choice", "choice_values": [true, false]}, "sort_features": {"distribution": "meta_choice", "choice_values": [true, false]}, "in_clique": {"distribution": "meta_choice", "choice_values": [true, false]}, "outputscale": {"distribution": "meta_trunc_norm_log_scaled", "max_mean": 10.0, "min_mean": 1e-05, "round": false, "lower_bound": 0}, "lengthscale": {"distribution": "meta_trunc_norm_log_scaled", "max_mean": 10.0, "min_mean": 1e-05, "round": false, "lower_bound": 0}, "noise": {"distribution": "meta_choice", "choice_values": [1e-05, 0.0001, 0.01]}}, "max_features": 100, "prompt_tuning": true, "tuned_prompt_size": 10, "tuned_prompt_label_balance": "equal", "num_eval_fitting_samples": 1000, "min_batches_per_epoch": 1, "zs_eval_ensemble": 0, "random_feature_rotation": false, "rotate_normalized_labels": false, "early_stopping_patience": 5, "rand_seed": 42, "max_eval_pos": 1152, "bptt_search": false, "aggregate_k_gradients": 1, "warmup_epochs": 0, "do_preprocess": true, "preprocess_type": "none", "normalize_with_sqrt": false, "split": 0, "pad_features": true, "reseed_data": false, "workers": 4, "private_model": false, "private_data": false, "epsilon": 50.0, "delta": 0.0001, "gradnorm": 1.2, "validation_period": 3, "val_subset_size": 1000000, "save_every_k_epochs": 2, "max_time": 36000, "shuffle_every_epoch": false, "topk_key": "Val_Accuracy", "optuna_objective": "Val_Accuracy", "concat_method": "", "device": "cuda", "data_path": "", "base_path": "/home/abellegese/miniconda3/envs/qsar/lib/python3.10/site-packages/tunetables_light/logs", "train_mixed_precision": true, "state_dict": {"transformer_encoder.layers.0.self_attn.in_proj_weight": "tensor([[ 0.0211,  0.0270,  0.0430,  ...,  0.0524, -0.0450, -0.0281],\n        [ 0.0457, -0.0105,  0.0019,  ...,  0.0507, -0.0682,  0.0422],\n        [ 0.0468, -0.0373, -0.0061,  ...,  0.0449, -0.0104, -0.0349],\n        ...,\n        [-0.0282,  0.0169,  0.0478,  ...,  0.0190,  0.0603, -0.0126],\n        [-0.0300,  0.0198, -0.0052,  ...,  0.0395,  0.0210, -0.0019],\n        [ 0.0591,  0.0255, -0.0151,  ..., -0.0382,  0.0368, -0.0320]])", "transformer_encoder.layers.0.self_attn.in_proj_bias": "tensor([-0.0017, -0.0322,  0.0465,  ..., -0.0047, -0.0182,  0.0061])", "transformer_encoder.layers.0.self_attn.out_proj.weight": "tensor([[ 0.0019, -0.0054,  0.0048,  ...,  0.0012,  0.0092,  0.0050],\n        [-0.0109,  0.0081, -0.0125,  ...,  0.0044, -0.0071,  0.0007],\n        [ 0.0022, -0.0007, -0.0034,  ..., -0.0028, -0.0080,  0.0020],\n        ...,\n        [ 0.0108,  0.0069,  0.0089,  ...,  0.0048, -0.0024, -0.0039],\n        [-0.0020,  0.0037, -0.0023,  ...,  0.0051, -0.0074,  0.0083],\n        [-0.0016,  0.0003, -0.0075,  ...,  0.0003,  0.0012, -0.0022]])", "transformer_encoder.layers.0.self_attn.out_proj.bias": "tensor([ 2.2590e-03, -1.3514e-02,  7.9060e-03, -1.4352e-02, -7.0773e-03,\n        -4.7699e-02,  1.0127e-03,  2.2237e-02, -1.8274e-02,  1.8394e-02,\n         1.7106e-02, -1.4886e-02, -1.2949e-02, -5.4430e-03,  1.3048e-02,\n        -5.4801e-03,  1.7767e-02,  1.7261e-02, -1.1275e-02,  4.9128e-03,\n         5.2647e-03, -8.3108e-03, -1.5888e-02,  4.2299e-03, -2.2586e-02,\n         6.3039e-03, -6.5093e-03,  1.2104e-02, -1.6243e-02,  2.4111e-03,\n         1.7912e-02,  4.1123e-02, -1.9147e-02, -1.2460e-02, -1.3053e-02,\n        -1.9513e-02,  1.3614e-02, -5.3446e-02,  8.2050e-03, -2.8015e-02,\n        -2.1434e-02,  1.9282e-02, -2.9903e-02, -1.0821e-02, -1.5606e-02,\n         1.0805e-02,  2.7984e-02,  1.8939e-02, -2.4301e-02, -1.1293e-02,\n         1.0116e-02,  2.4705e-02, -1.4317e-02, -5.7783e-03, -2.0204e-02,\n         1.7087e-02, -4.2189e-03,  7.3556e-03,  1.0557e-02, -5.0911e-03,\n        -3.3917e-04, -1.1397e-03,  2.6040e-03,  2.0190e-02, -4.3294e-03,\n         5.8250e-03, -2.2567e-02,  2.6504e-02,  1.4927e-02,  2.2358e-02,\n         6.3182e-03,  1.5139e-02, -1.2127e-05, -3.2686e-02, -2.6611e-02,\n        -1.3841e-02,  2.7821e-02, -1.6468e-02,  6.8816e-03, -2.8802e-02,\n         1.1397e-02,  4.8478e-03, -1.7252e-03,  9.3791e-03,  8.8324e-03,\n        -1.0412e-02, -8.4685e-03, -5.6040e-04, -2.5617e-02, -1.2303e-02,\n         2.7508e-02,  4.4284e-03,  2.4604e-02,  2.7863e-02, -3.4145e-03,\n        -2.2718e-02, -4.4355e-03,  1.8583e-02, -1.6135e-02,  9.8965e-03,\n        -1.1757e-02, -1.7308e-02,  3.6023e-03, -2.1251e-03,  1.4222e-02,\n        -5.2601e-03, -1.3372e-02, -1.7605e-03, -1.9846e-02, -5.7618e-03,\n        -7.2354e-03, -1.6973e-02, -2.9346e-02, -1.6317e-02,  8.9069e-03,\n         1.5246e-02,  1.9608e-04, -2.5987e-03, -9.3462e-03, -1.8890e-02,\n        -1.3844e-02,  2.5168e-02, -2.3846e-03,  2.2359e-03,  1.1757e-02,\n        -1.5260e-02,  4.7901e-04, -4.7355e-02, -1.2210e-02, -2.7838e-02,\n        -9.6101e-03, -1.1786e-03, -1.7162e-02, -9.6051e-03, -1.2289e-02,\n        -6.6112e-03,  2.2306e-02,  7.8738e-03, -1.3710e-02,  4.7171e-02,\n         6.5720e-03, -1.3976e-03,  1.4498e-02, -2.6631e-02,  8.1065e-03,\n        -1.3321e-02, -2.9459e-03, -1.1912e-02,  4.7470e-03,  2.0212e-02,\n        -1.2559e-02,  2.4316e-02, -1.0881e-02,  7.2628e-03, -1.6002e-02,\n         1.1682e-03, -1.0627e-02,  9.2240e-04,  4.1295e-02,  3.0508e-02,\n         1.2006e-02,  3.9472e-04,  1.1285e-02, -1.2474e-05, -7.4637e-03,\n         7.8151e-03,  1.9854e-02, -1.9936e-02,  4.3157e-04, -8.7635e-03,\n         2.2873e-02,  2.9908e-02,  2.0899e-02,  1.1548e-02,  2.9355e-02,\n         1.9273e-02,  8.3186e-03,  1.5544e-03, -2.6964e-02, -1.5101e-02,\n         4.7108e-03, -2.7362e-03, -1.3909e-02,  2.5668e-03, -1.8298e-02,\n        -5.0815e-03, -1.6765e-02, -1.1934e-02, -2.5426e-02, -9.3307e-03,\n         1.3325e-02, -3.3607e-02,  1.6032e-02, -3.4454e-02, -1.9978e-02,\n        -1.7596e-02,  1.7460e-02,  4.5416e-03, -3.6213e-03,  1.2511e-02,\n        -1.6546e-03, -4.4703e-03, -5.3064e-03, -8.5231e-03,  6.2087e-03,\n        -1.4774e-03, -4.2463e-03,  3.3681e-02, -2.5588e-02,  1.6805e-02,\n         1.7975e-02,  1.8145e-02, -1.9390e-02,  4.7845e-02, -1.7748e-03,\n         1.1104e-03, -1.6129e-02,  6.8827e-03,  3.0944e-03, -2.1765e-02,\n         1.1945e-02, -1.0393e-02, -9.1435e-03, -1.3943e-02, -1.4604e-02,\n        -7.3900e-03, -1.4177e-02,  1.4118e-02, -1.0027e-02, -8.6953e-03,\n         3.7690e-02,  1.7400e-02,  2.0363e-02, -2.3040e-03, -9.1038e-03,\n        -3.4759e-03,  1.6766e-02, -6.1891e-03,  2.3674e-02,  1.2424e-02,\n        -2.7422e-03,  1.2226e-02,  6.9865e-03,  1.7585e-03,  2.8335e-02,\n         2.0422e-02, -2.9524e-02,  1.7067e-02, -1.5978e-03,  3.6548e-02,\n         2.1178e-02, -6.7911e-03,  2.5405e-03, -6.6516e-03, -2.4650e-02,\n        -5.7795e-03, -1.1927e-02,  2.7278e-02,  4.2829e-02, -1.9908e-02,\n         2.5365e-02,  5.2826e-03,  7.1416e-03, -1.4181e-02, -2.6659e-02,\n        -1.2561e-02,  1.3197e-02,  7.7674e-03,  2.0648e-02,  3.2044e-02,\n        -9.5994e-03, -2.5581e-03, -9.3804e-03,  5.4964e-03, -5.9804e-03,\n         6.3409e-03, -5.9264e-04, -2.1557e-02,  1.8066e-02,  4.6384e-02,\n        -7.3821e-04, -2.3014e-02,  6.6826e-03,  2.1079e-02,  8.7631e-03,\n         3.0025e-02,  1.0151e-02, -3.2394e-03, -1.2691e-02,  1.3307e-02,\n        -9.5154e-03, -2.0367e-03, -1.6194e-02, -2.2686e-02, -2.9177e-03,\n        -6.9416e-03, -5.3011e-03, -1.3214e-02,  9.9844e-03, -2.0277e-02,\n         6.1631e-03,  1.3609e-03,  3.6740e-03, -7.8959e-03,  1.4725e-02,\n         1.6377e-02, -2.3623e-03, -1.4855e-02, -1.8340e-02, -4.2982e-03,\n         2.1400e-02, -9.7366e-03, -1.6183e-02,  2.3254e-02, -2.3440e-02,\n        -6.9370e-03,  1.2577e-02,  4.8322e-02,  2.1455e-03, -1.2072e-02,\n         1.5316e-02,  4.2818e-03, -7.5964e-03, -7.8480e-03,  1.3983e-02,\n         3.5556e-03, -9.9929e-03, -3.5156e-03,  4.2129e-03,  2.0789e-03,\n         1.2630e-02,  8.3179e-03, -2.8434e-03,  1.1615e-02,  1.7807e-02,\n         1.7333e-02, -6.8655e-03, -1.6382e-02, -1.1812e-02,  1.5119e-02,\n        -2.5733e-03, -1.0969e-02, -2.2467e-02, -3.3368e-02, -5.6195e-03,\n        -8.2526e-03,  1.7771e-02, -3.3876e-03,  8.9942e-03,  5.0561e-04,\n         1.9102e-02,  1.3241e-02, -2.6709e-02, -4.4793e-03, -9.0602e-03,\n        -1.4908e-02, -2.4214e-02,  1.7736e-02, -6.5491e-03,  2.9968e-02,\n         1.6227e-02, -1.6836e-02, -1.3039e-02,  3.8715e-03, -1.4703e-02,\n         8.1321e-04, -1.0758e-02,  2.0642e-02,  3.9593e-03, -1.6472e-02,\n        -5.3637e-03,  7.6511e-03,  1.3434e-03,  1.5635e-02,  2.7870e-02,\n         2.6247e-02, -5.6689e-03, -2.6801e-02, -2.9446e-02, -2.6728e-02,\n        -2.0068e-02,  6.0026e-03, -1.3469e-02, -4.9737e-03, -1.8669e-02,\n        -1.7494e-02,  1.2065e-02, -1.5401e-02, -3.2090e-02, -6.1226e-03,\n         2.3416e-02,  1.5755e-02, -2.1099e-02,  3.6000e-02,  3.4662e-03,\n        -6.4956e-03, -2.7649e-04, -1.5060e-02,  5.6213e-03, -7.7635e-03,\n        -1.2598e-02,  1.1933e-02,  1.8878e-02, -7.4150e-03,  1.7645e-02,\n         9.4931e-04,  1.1303e-02,  8.5183e-03,  6.2305e-03,  2.2396e-03,\n        -9.7342e-03,  1.5105e-02, -1.0120e-02, -1.9568e-02,  1.4275e-02,\n        -3.6063e-02, -1.5645e-02,  1.6433e-02, -9.0003e-03,  1.3253e-02,\n        -9.7777e-03,  4.3701e-03, -9.2668e-03,  1.0371e-02, -3.4090e-02,\n         2.4815e-02, -2.4617e-02,  2.4543e-02,  1.5274e-03, -1.8299e-03,\n        -4.7969e-03, -2.3256e-02, -2.2357e-03, -1.2094e-02,  1.8427e-02,\n        -1.7180e-02, -9.4223e-03, -1.3138e-02,  8.5773e-03,  1.4367e-02,\n        -5.7118e-03,  3.1679e-02,  5.1246e-03, -6.5972e-03,  1.0329e-02,\n        -1.9463e-03,  2.4182e-02, -4.5516e-03, -1.7186e-02,  1.8546e-02,\n         2.2496e-02, -4.0959e-02, -6.9126e-03,  2.5286e-03, -2.1409e-02,\n         7.9894e-03, -1.3983e-02, -8.9870e-04, -1.8156e-02, -2.1902e-02,\n         2.3009e-02, -4.0468e-02, -1.0674e-02, -4.9034e-03,  2.7461e-04,\n         1.2884e-02, -2.6769e-02, -1.7909e-02,  2.7746e-02,  8.6367e-03,\n        -3.7842e-03,  1.4949e-02, -4.8672e-04,  2.4839e-03,  3.3011e-02,\n        -1.1534e-02, -1.9243e-02,  2.2744e-02, -1.0179e-02, -1.6605e-02,\n         7.9587e-03,  1.3369e-02, -5.1204e-03, -1.7883e-02,  3.1795e-02,\n         2.1522e-02,  5.6588e-03, -9.4455e-03,  1.3812e-02, -1.9560e-02,\n        -1.1392e-02, -1.0027e-02,  8.1218e-03, -1.1223e-02, -3.9533e-02,\n         2.3285e-03, -2.6215e-02,  2.2025e-02,  2.7981e-02,  1.9099e-02,\n        -1.1679e-02,  1.6709e-03, -1.5896e-02, -1.4049e-02,  2.5210e-02,\n         1.7112e-02, -1.2526e-02, -3.3476e-02, -8.3409e-03, -1.1903e-03,\n        -8.4390e-03, -7.6707e-03])", "transformer_encoder.layers.0.linear1.weight": "tensor([[ 0.0182,  0.0549,  0.0703,  ..., -0.0118, -0.0437,  0.0205],\n        [-0.0070, -0.0002,  0.0214,  ..., -0.0303, -0.0302, -0.0450],\n        [-0.0193, -0.0227,  0.0107,  ...,  0.0006, -0.0107, -0.0336],\n        ...,\n        [-0.0409,  0.0294, -0.0038,  ..., -0.0216, -0.0176, -0.0121],\n        [ 0.0274, -0.0122, -0.0274,  ...,  0.0283,  0.0004, -0.0120],\n        [ 0.0113,  0.0295,  0.0261,  ..., -0.0286,  0.0148,  0.0161]])", "transformer_encoder.layers.0.linear1.bias": "tensor([-0.0037,  0.0506,  0.0461,  ...,  0.0605, -0.0113,  0.0493])", "transformer_encoder.layers.0.linear2.weight": "tensor([[ 0.0075,  0.0022,  0.0097,  ..., -0.0085,  0.0012, -0.0053],\n        [-0.0204, -0.0006,  0.0021,  ...,  0.0045,  0.0038, -0.0014],\n        [-0.0064, -0.0048,  0.0020,  ...,  0.0035,  0.0017, -0.0045],\n        ...,\n        [-0.0170,  0.0116,  0.0002,  ..., -0.0084,  0.0171,  0.0018],\n        [ 0.0066, -0.0008,  0.0114,  ...,  0.0178,  0.0133,  0.0083],\n        [-0.0161, -0.0019, -0.0060,  ..., -0.0008,  0.0013,  0.0031]])", "transformer_encoder.layers.0.linear2.bias": "tensor([-1.6202e-02,  5.3693e-03, -1.0587e-03,  8.3124e-03, -1.3192e-03,\n        -1.4596e-02, -2.5603e-03,  6.1316e-03, -5.7484e-03,  1.2477e-02,\n        -1.0836e-02, -1.4486e-02, -2.3317e-02, -1.5056e-02,  4.8371e-03,\n         1.8713e-02, -3.8227e-03,  3.2877e-03,  3.1908e-03, -1.4584e-02,\n         6.5016e-03,  7.9398e-03,  1.2946e-02, -8.9297e-03, -1.3988e-02,\n        -1.6632e-03,  1.3838e-03, -4.6521e-03, -6.6966e-03, -4.9765e-03,\n        -9.7804e-03, -4.1038e-03,  5.5505e-03, -6.4204e-03,  1.3248e-02,\n         2.1426e-02,  1.3423e-02, -3.8023e-03, -1.7747e-02, -7.0315e-03,\n         7.2192e-03, -2.1248e-02,  9.3694e-03, -4.4668e-03,  6.2142e-03,\n        -7.5313e-03,  2.4450e-03, -8.5226e-03, -1.1039e-02,  1.2477e-02,\n         3.9802e-03, -1.3932e-02, -7.3706e-03, -1.2010e-02,  2.0698e-03,\n        -1.3325e-03, -1.9216e-03,  1.4035e-02, -1.1542e-03, -2.1420e-02,\n         2.7283e-03, -4.4015e-03,  6.2726e-03,  1.2763e-03, -7.0238e-03,\n        -6.4869e-03, -2.5327e-03, -2.3370e-03,  3.2660e-03,  3.6869e-03,\n         3.9228e-03,  1.4170e-02, -3.5593e-03, -6.4645e-03,  1.5768e-02,\n        -4.2211e-03, -2.8725e-03, -8.0396e-03, -4.8660e-03,  5.2707e-03,\n        -1.9532e-03,  2.2911e-04,  1.7155e-02, -1.3158e-02, -1.8551e-02,\n         7.0019e-03,  1.4477e-03, -1.6808e-02, -1.9648e-03, -3.0924e-05,\n        -5.0434e-04, -7.5887e-03,  6.1007e-03,  1.2969e-02,  1.4552e-02,\n        -4.6861e-03, -6.7172e-03,  3.6596e-03, -5.4236e-03,  5.1398e-03,\n         1.0748e-02, -8.1405e-03, -1.2068e-02, -9.9645e-03,  1.4209e-02,\n         5.5206e-03,  2.9190e-03, -2.3396e-02, -6.0219e-03,  9.9411e-03,\n        -1.6697e-02,  4.8326e-03, -4.4913e-03,  1.1218e-02,  2.9650e-03,\n         1.5765e-02,  7.7301e-03, -9.9930e-03,  6.6268e-03,  2.4991e-02,\n        -1.1768e-02,  1.5717e-02, -1.7495e-02,  5.3065e-03, -2.6931e-03,\n         9.6301e-03, -1.7541e-03,  8.3992e-03,  4.9586e-03,  7.5107e-03,\n         1.1930e-02,  6.4675e-03,  1.8206e-02,  1.2336e-02,  7.4529e-04,\n        -1.2974e-04,  5.4745e-03,  6.2014e-03, -9.2983e-03,  1.8449e-02,\n         2.0180e-02, -8.1475e-04, -2.0390e-03,  1.2472e-02,  2.7341e-03,\n        -5.7189e-03, -1.2013e-02, -1.3926e-03,  1.9317e-03, -1.6739e-02,\n         4.9320e-03, -4.8466e-03, -1.3298e-02,  7.6024e-03, -8.5947e-03,\n        -7.3384e-03, -1.7689e-03,  1.0429e-02, -2.2897e-03,  4.7122e-03,\n        -1.9124e-03,  1.3446e-02, -6.2575e-03, -1.9704e-02,  1.6915e-02,\n         4.9120e-03,  7.9402e-03, -5.4302e-03, -1.6380e-03,  1.3491e-02,\n        -1.4821e-02, -7.0283e-03, -3.8985e-03, -2.5187e-02, -3.4622e-04,\n         2.2724e-04,  4.6227e-03,  1.2847e-02, -1.0338e-02, -3.8093e-03,\n         1.0732e-02, -1.3442e-02, -8.9945e-03, -1.0195e-02,  9.1054e-04,\n        -7.3610e-03, -4.1402e-03, -5.6964e-04, -6.6304e-03, -1.2107e-03,\n         4.1269e-04, -2.7794e-02,  4.4713e-03, -1.8419e-02,  1.5932e-02,\n        -1.4982e-02,  6.7261e-03,  2.7880e-02,  5.0175e-03, -1.2233e-03,\n         9.5623e-03, -3.8359e-03, -1.9299e-02, -8.8072e-03, -1.3413e-03,\n         1.8005e-02,  2.3022e-02,  3.0887e-02,  1.3362e-02, -4.0571e-03,\n        -7.7632e-03, -7.5473e-03, -2.8423e-03,  7.6280e-03,  1.4925e-03,\n        -8.9335e-03, -6.2374e-03, -8.7097e-03, -2.1517e-02,  3.8197e-04,\n         4.3601e-03,  1.9724e-02,  1.1644e-03,  1.4400e-03,  1.8931e-03,\n        -1.7764e-02,  1.2412e-02,  8.8675e-03, -5.8106e-03, -1.9876e-03,\n         3.9534e-03, -1.3589e-02, -2.0340e-03,  1.4295e-03, -5.7092e-03,\n        -2.1814e-02,  5.6221e-03, -7.1857e-03,  1.8488e-03,  2.3380e-03,\n        -1.4724e-02, -3.1947e-03,  1.5320e-02,  3.7210e-03,  3.2655e-03,\n         5.9033e-03,  4.6944e-03,  1.1614e-02,  1.8456e-02,  9.4517e-03,\n        -6.8992e-03, -1.3661e-02,  2.4445e-02,  2.4466e-02, -7.2216e-04,\n        -1.6078e-02, -2.3125e-02, -3.6049e-03, -2.4933e-03, -9.2415e-03,\n         4.0527e-03,  6.2080e-03, -1.7927e-02, -5.8703e-03,  8.2947e-03,\n         2.9493e-03,  1.5060e-03,  4.3264e-03,  6.0399e-04,  7.1441e-03,\n        -3.2447e-03,  1.5080e-03, -4.3885e-03, -4.5269e-03, -3.8878e-03,\n        -4.7588e-03,  1.1637e-02, -2.8470e-03,  5.9955e-03,  2.0536e-03,\n         7.6243e-03, -1.0243e-02, -1.2781e-02, -1.3446e-02, -1.9629e-02,\n        -3.0835e-03,  1.9583e-02,  2.7897e-02,  5.3422e-03,  7.5686e-03,\n        -2.5970e-02, -7.5748e-03,  1.2169e-02, -9.4098e-03,  5.8495e-03,\n         2.7707e-03,  1.5694e-02, -1.7339e-02,  6.4622e-03,  1.0516e-02,\n         7.0431e-03,  9.0164e-03, -8.9496e-03, -2.7175e-03,  5.4551e-04,\n         9.0731e-03, -8.1741e-03,  1.3525e-02,  4.7884e-03, -1.7722e-02,\n         4.4350e-03, -2.3890e-02,  8.6394e-03,  7.0869e-03, -8.7827e-03,\n         5.1526e-03,  1.0972e-02,  3.6280e-03, -1.3078e-03,  8.1334e-03,\n        -1.1859e-02, -1.5182e-02,  3.0437e-04,  5.3318e-03,  3.6052e-03,\n         3.1822e-04,  8.5854e-03,  5.0493e-03, -7.7876e-03, -1.3404e-02,\n         2.2963e-03,  1.7322e-02,  1.6763e-04, -1.1716e-02, -2.8016e-04,\n         2.1538e-03, -1.2554e-03, -1.2247e-02,  1.1145e-03,  5.5172e-03,\n        -1.0112e-02, -6.8859e-03, -7.4525e-03,  4.4746e-03,  3.6450e-03,\n         1.9339e-03,  7.1567e-03, -6.3001e-03,  1.2645e-03, -1.2957e-02,\n        -2.0925e-03,  1.4498e-02,  6.6114e-03,  1.5981e-02,  4.8286e-03,\n         1.4722e-02,  2.0268e-03,  5.6923e-03, -1.5899e-03, -5.9210e-03,\n         2.9409e-03,  3.8289e-03, -7.5019e-03,  1.4985e-02, -1.3305e-02,\n        -1.6808e-03, -4.4382e-03,  5.1344e-03, -7.5751e-03,  1.8790e-02,\n        -4.9938e-03,  1.4421e-02,  5.6958e-03,  1.5262e-03, -5.0885e-03,\n         4.8155e-03, -1.7605e-04, -4.9898e-03,  2.6512e-02,  7.6344e-03,\n        -3.6594e-03, -5.4838e-04, -4.1545e-03, -1.5699e-02,  1.0149e-02,\n        -5.1821e-03,  5.5500e-03,  7.0926e-03,  3.1392e-03,  3.5284e-03,\n         4.1608e-03,  9.6575e-04,  4.9832e-03, -3.4732e-04, -1.3469e-02,\n        -1.0342e-05, -8.6089e-03, -9.9019e-03, -6.4885e-04,  6.3203e-03,\n        -5.8061e-03,  1.1747e-02, -1.4056e-02,  1.6638e-02, -1.4174e-02,\n         1.1862e-02, -2.9898e-03,  1.4156e-02, -8.3138e-03, -1.6698e-02,\n         1.6035e-02,  1.6666e-03,  4.5837e-03, -6.2753e-03, -3.5728e-03,\n        -2.2557e-02, -1.0014e-02,  6.4830e-03,  2.9476e-02,  1.8085e-02,\n         1.0565e-02,  1.7789e-02, -1.6243e-02,  8.0709e-03, -5.0468e-03,\n         9.2232e-03, -2.3385e-03,  3.0474e-03,  6.6087e-03, -7.1591e-03,\n        -9.3129e-03, -1.8529e-02,  2.0091e-02,  1.0500e-03, -4.9479e-05,\n        -2.6753e-04,  4.1541e-03, -4.9842e-03, -2.5390e-02,  6.7812e-03,\n         7.4378e-03, -1.7443e-02, -8.3138e-03, -6.3770e-03,  3.9256e-03,\n        -8.3620e-03,  5.0272e-03, -1.5852e-02, -1.2738e-02, -1.9403e-03,\n        -1.1071e-02, -8.4815e-04, -1.8440e-03,  1.8710e-02, -2.0887e-02,\n        -1.7112e-03,  1.8905e-02, -3.3394e-03,  1.2491e-02, -7.8480e-03,\n         2.8866e-03, -1.1483e-02, -2.2535e-02,  7.7539e-03, -9.1745e-03,\n        -1.3047e-02, -6.2289e-03, -1.7571e-03,  4.8580e-03,  7.4459e-03,\n        -7.1661e-03, -1.4790e-03, -2.5711e-03, -6.2759e-03,  1.8208e-02,\n        -5.7908e-03, -1.0736e-02,  5.3021e-03,  8.1505e-03, -1.5559e-02,\n         1.8694e-03,  3.6063e-03,  1.5969e-02, -1.4648e-02,  4.9215e-03,\n        -3.3923e-04, -1.5549e-03, -5.9765e-03,  8.6074e-03,  7.6516e-03,\n         6.9805e-03,  1.9668e-02, -9.4863e-03,  4.6088e-04, -5.2225e-03,\n         1.7547e-02, -1.4665e-03, -2.9780e-04, -1.5184e-02,  4.0734e-03,\n         3.0902e-03,  3.3013e-03, -8.6505e-03, -8.3042e-03,  1.2772e-02,\n         5.1562e-03, -9.2082e-03, -3.3441e-03,  1.3637e-02,  1.7233e-02,\n        -2.9550e-03,  9.2160e-03])", "transformer_encoder.layers.0.norm1.weight": "tensor([0.9818, 0.9913, 1.0049, 1.0462, 1.0220, 1.0337, 1.0106, 0.9976, 1.0295,\n        0.9959, 1.0095, 0.9888, 0.9962, 1.0026, 1.0071, 0.9849, 1.0122, 1.0048,\n        0.9971, 0.9961, 0.9838, 0.9907, 0.9869, 1.0001, 1.0193, 0.9982, 1.0071,\n        0.9935, 1.0109, 1.0194, 0.9922, 1.0052, 1.0156, 1.0071, 1.0474, 1.0277,\n        0.9941, 1.0080, 0.9872, 1.0055, 1.0183, 1.0343, 1.0182, 1.0044, 1.0161,\n        0.9812, 1.0470, 1.0103, 0.9913, 1.0092, 1.0059, 0.9933, 1.0019, 1.0030,\n        1.0065, 1.0504, 1.0100, 1.0517, 1.0048, 0.9940, 1.0049, 0.9930, 1.0001,\n        1.0018, 1.0199, 1.0057, 0.9918, 1.0088, 1.0020, 1.0135, 0.9900, 0.9933,\n        1.0115, 0.9957, 1.0368, 1.0214, 1.0164, 1.0013, 1.0138, 1.0054, 1.0316,\n        1.0001, 0.9955, 0.9932, 1.0007, 0.9847, 0.9997, 0.9874, 1.0310, 1.0277,\n        1.0064, 0.9973, 0.9836, 0.9997, 0.9901, 0.9850, 1.0037, 1.0074, 1.0021,\n        1.0155, 1.0012, 1.0026, 1.0029, 0.9868, 0.9960, 0.9973, 1.0048, 0.9942,\n        1.0248, 0.9967, 0.9893, 1.0002, 1.0150, 0.9829, 1.0056, 0.9904, 1.0041,\n        0.9917, 1.0088, 1.0150, 0.9984, 1.0111, 0.9963, 1.0154, 1.0130, 1.0240,\n        1.0116, 0.9944, 1.0040, 1.0035, 0.9931, 1.0254, 0.9994, 0.9901, 1.0183,\n        1.0075, 1.0037, 1.0170, 1.0028, 1.0105, 0.9850, 1.0019, 1.0334, 1.0058,\n        1.0189, 0.9941, 0.9852, 0.9984, 0.9970, 1.0018, 1.0087, 1.0153, 1.0358,\n        0.9945, 1.0023, 0.9953, 0.9906, 0.9990, 1.0079, 1.0243, 1.0061, 0.9943,\n        0.9895, 0.9965, 0.9858, 1.0022, 0.9990, 1.0008, 1.0311, 0.9857, 1.0004,\n        0.9810, 1.0118, 0.9837, 1.0160, 1.0314, 1.0009, 0.9928, 0.9908, 0.9990,\n        0.9887, 0.9943, 0.9938, 0.9962, 1.0077, 1.0055, 1.0059, 0.9842, 1.0157,\n        0.9878, 1.0176, 1.0195, 1.0177, 1.0280, 0.9917, 1.0027, 1.0041, 0.9838,\n        1.0322, 1.0100, 0.9958, 0.9974, 0.9931, 1.0616, 1.0276, 0.9936, 0.9810,\n        0.9954, 0.9867, 1.0204, 1.0047, 1.0203, 1.0050, 1.0238, 0.9909, 1.0084,\n        1.0027, 0.9936, 1.0467, 1.0007, 0.9939, 0.9967, 1.0405, 0.9965, 1.0132,\n        0.9822, 1.0003, 1.0323, 0.9993, 1.0052, 1.0197, 0.9881, 1.0134, 0.9949,\n        1.0433, 0.9879, 0.9987, 0.9938, 0.9989, 0.9993, 0.9975, 0.9969, 0.9995,\n        1.0403, 1.0263, 0.9997, 1.0102, 1.0489, 0.9891, 0.9921, 0.9891, 0.9982,\n        0.9913, 0.9852, 1.0047, 1.0065, 0.9906, 1.0069, 1.0273, 1.0376, 0.9936,\n        1.0314, 0.9948, 1.0481, 1.0050, 0.9956, 1.0141, 0.9963, 1.0014, 1.0094,\n        1.0226, 0.9915, 1.0035, 0.9914, 1.0447, 0.9960, 0.9956, 1.0052, 1.0030,\n        1.0170, 0.9937, 1.0241, 0.9833, 1.0029, 0.9904, 1.0064, 0.9975, 0.9890,\n        1.0091, 0.9977, 0.9964, 0.9830, 0.9893, 0.9950, 1.0092, 1.0031, 0.9976,\n        0.9871, 1.0575, 1.0136, 1.0092, 1.0119, 0.9944, 0.9890, 1.0358, 0.9941,\n        1.0383, 0.9894, 1.0504, 0.9973, 1.0115, 0.9826, 0.9903, 1.0128, 0.9982,\n        1.0144, 1.0132, 1.0204, 1.0070, 0.9879, 1.0092, 0.9885, 0.9960, 0.9891,\n        1.0138, 0.9972, 0.9896, 1.0079, 0.9908, 1.0057, 1.0069, 0.9995, 0.9914,\n        0.9984, 1.0022, 1.0092, 0.9984, 0.9959, 1.0000, 0.9987, 0.9898, 0.9945,\n        1.0063, 0.9954, 1.0096, 1.0229, 1.0004, 0.9900, 0.9867, 1.0475, 1.0092,\n        1.0351, 1.0021, 0.9920, 0.9957, 1.0093, 1.0120, 0.9956, 0.9865, 1.0024,\n        1.0124, 1.0195, 1.0151, 0.9928, 1.0390, 1.0242, 0.9979, 1.0007, 0.9941,\n        1.0039, 1.0190, 0.9994, 0.9997, 1.0212, 1.0034, 1.0133, 1.0158, 1.0170,\n        1.0146, 0.9985, 0.9969, 1.0126, 1.0072, 0.9965, 1.0068, 1.0403, 1.0013,\n        1.0299, 1.0100, 0.9907, 1.0189, 1.0098, 1.0087, 1.0079, 1.0025, 1.0008,\n        1.0399, 0.9915, 1.0264, 1.0759, 1.0343, 0.9984, 1.0219, 1.0035, 1.0035,\n        0.9966, 1.0305, 0.9961, 0.9949, 0.9871, 0.9917, 0.9979, 0.9961, 0.9965,\n        1.0381, 0.9935, 1.0062, 0.9975, 0.9769, 0.9942, 1.0027, 1.0234, 0.9983,\n        0.9946, 0.9850, 1.0002, 1.0024, 0.9984, 1.0025, 0.9970, 0.9991, 1.0212,\n        1.0112, 1.0161, 1.0232, 1.0111, 1.0082, 0.9929, 0.9894, 1.0013, 1.0205,\n        0.9926, 0.9877, 0.9980, 1.0013, 1.0157, 1.0141, 1.0664, 1.0041, 1.0117,\n        1.0294, 1.0181, 1.0193, 0.9841, 1.0041, 0.9855, 0.9999, 1.0008, 1.0018,\n        1.0334, 0.9942, 1.0276, 1.0027, 0.9918, 1.0039, 0.9966, 1.0080, 1.0117,\n        1.0269, 1.0005, 0.9939, 1.0044, 1.0229, 0.9878, 1.0332, 0.9900, 1.0525,\n        1.0022, 1.0359, 0.9951, 0.9985, 1.0108, 0.9932, 0.9987, 1.0109, 1.0055,\n        0.9968, 1.0031, 1.0082, 1.0092, 1.0006, 0.9921, 1.0188, 0.9871, 1.0159,\n        0.9944, 1.0165, 1.0148, 1.0312, 0.9916, 0.9940, 0.9920, 1.0278, 1.0657,\n        1.0533, 1.0159, 0.9977, 1.0113, 1.0137, 0.9817, 1.0182, 1.0113])", "transformer_encoder.layers.0.norm1.bias": "tensor([-2.5867e-02,  6.2601e-03,  2.1408e-03,  5.9260e-03, -6.8530e-03,\n        -7.8585e-03, -6.4931e-03,  6.0177e-03, -2.0802e-03,  1.2678e-02,\n        -3.9962e-03, -1.2580e-02, -2.7204e-02, -1.7274e-02, -2.1684e-03,\n         2.3531e-02,  1.8651e-03,  3.2931e-03, -2.4279e-03, -1.4461e-02,\n        -4.8324e-03,  1.0541e-02,  1.1667e-02, -1.4258e-02, -8.5196e-03,\n        -4.4631e-03,  6.4601e-03, -9.3947e-03,  7.8460e-04, -6.1249e-03,\n        -1.9148e-02, -2.3487e-03,  3.3405e-03, -7.5054e-03,  8.6907e-03,\n         2.2112e-02,  1.9212e-02, -2.4038e-03, -3.4973e-02, -6.7754e-03,\n         1.7208e-03, -1.5647e-02,  7.2586e-03, -5.2750e-03,  3.1407e-03,\n        -1.6141e-02, -2.9562e-03, -4.9506e-03, -9.6353e-03,  1.9809e-02,\n         8.1635e-03, -1.6416e-02, -9.3226e-03, -9.3746e-03,  1.3866e-03,\n         2.9509e-03,  2.1047e-03,  1.0515e-02, -5.8169e-03, -2.2532e-02,\n         7.9532e-03, -5.9735e-04,  6.6925e-03,  2.9646e-03, -8.5337e-03,\n        -1.5274e-02,  2.0481e-03, -1.4316e-03,  4.1556e-03,  3.7318e-03,\n         5.3585e-03,  2.3068e-02,  5.4239e-03, -8.5964e-03,  1.7761e-02,\n        -5.9602e-04, -1.6144e-03, -9.7097e-03, -5.7818e-03,  6.9935e-03,\n        -7.0414e-03,  4.5839e-03,  1.7326e-02, -1.2681e-02, -2.1418e-02,\n         1.3577e-02,  1.2472e-02, -2.3052e-02, -1.5697e-03,  2.7477e-03,\n         3.4356e-03, -8.2344e-03,  9.5369e-03,  1.1891e-02,  1.4176e-02,\n         2.2425e-03, -1.1691e-02,  3.1996e-03, -6.3005e-03,  4.7611e-03,\n         1.8670e-02, -8.2065e-03, -6.3787e-03, -1.6542e-02,  1.0152e-02,\n         1.3457e-02,  8.6053e-03, -2.8257e-02, -3.9054e-03,  1.2371e-02,\n        -2.3351e-02,  7.2711e-03, -4.9678e-03,  1.2226e-02,  3.3477e-03,\n         1.3655e-02,  5.7710e-04, -1.2295e-02,  1.4189e-02,  2.3757e-02,\n        -2.4477e-02,  9.2948e-03, -2.7789e-02,  8.6550e-03, -2.5927e-03,\n         6.1380e-03, -4.7771e-03,  1.1967e-02,  4.9573e-03,  9.9358e-03,\n         1.2855e-02,  4.4158e-03,  2.7570e-02,  1.8802e-02,  3.8478e-03,\n         7.2912e-03,  5.3663e-03,  3.5188e-03, -1.0423e-02,  1.2900e-02,\n         2.0710e-02,  1.0016e-02,  8.8282e-04,  1.2053e-02,  2.1663e-03,\n        -1.2008e-02, -2.0624e-02, -2.5973e-03,  8.1361e-03, -1.9451e-02,\n         3.3251e-03, -1.5424e-03, -1.2220e-02,  9.9441e-03, -9.0605e-03,\n        -1.2707e-02, -2.6492e-04,  1.3136e-02, -4.3344e-03,  3.8989e-03,\n        -3.2784e-03,  1.9703e-02, -5.3340e-03, -2.4043e-02,  1.8856e-02,\n         5.5494e-03,  8.0795e-03, -9.4795e-03,  8.5860e-03,  1.7205e-02,\n        -1.5648e-02, -1.2763e-02, -4.2934e-03, -3.1389e-02, -1.3616e-03,\n        -6.3161e-04,  7.3451e-03,  4.6358e-03, -9.5325e-03, -3.1419e-03,\n         2.1753e-02, -1.4442e-02, -8.8729e-03, -1.4460e-02,  1.1923e-03,\n        -7.2224e-03, -5.0848e-03, -1.1207e-02, -6.8181e-05, -2.4166e-03,\n         2.3298e-03, -2.2003e-02,  3.0018e-03, -1.4316e-02,  1.8348e-02,\n        -1.2325e-02,  6.3911e-03,  2.9575e-02,  2.3000e-03, -1.9493e-03,\n         1.5170e-03, -1.4483e-03, -2.1735e-02, -3.5856e-03, -2.2354e-03,\n         2.2406e-02,  2.6303e-02,  2.9514e-02,  1.7992e-02,  2.6740e-03,\n        -6.2938e-03, -3.1087e-03, -3.2629e-03,  3.8166e-03,  3.6041e-03,\n        -1.3292e-02, -6.1212e-03, -1.5209e-02, -2.0492e-02, -9.9146e-03,\n         8.8674e-03,  2.4083e-02,  4.6753e-03, -7.1797e-04,  1.9339e-04,\n        -2.7101e-02,  1.9289e-02,  1.5008e-02, -4.2267e-03, -1.5138e-03,\n         1.7238e-03, -1.3487e-02, -5.3721e-04, -1.8624e-03, -5.2190e-03,\n        -2.4826e-02,  4.0427e-03, -1.3195e-02, -2.8916e-03,  6.5724e-03,\n        -1.4414e-02,  1.6278e-03,  2.4436e-02,  3.0531e-03,  3.2799e-03,\n         6.1902e-03, -4.2659e-04,  4.9715e-03,  2.8166e-02,  1.8357e-03,\n        -1.6987e-02, -1.5329e-02,  2.7150e-02,  3.0357e-02, -1.4814e-03,\n        -1.4808e-02, -2.5225e-02, -7.3975e-03, -2.3177e-03, -8.0397e-03,\n         1.6143e-03,  1.8591e-03, -1.5235e-02, -6.4363e-03,  5.9693e-03,\n        -4.2294e-03,  5.1773e-03,  3.9657e-03,  5.4064e-03,  7.3719e-03,\n        -2.7299e-03, -2.2065e-03, -5.4264e-03, -5.5630e-03, -1.7593e-03,\n        -6.6782e-03,  1.7992e-02,  5.6646e-04,  6.6771e-03,  3.3211e-04,\n         1.0234e-02, -3.5583e-03, -1.5040e-02, -1.4992e-02, -2.7233e-02,\n         4.5327e-03,  1.6613e-02,  3.6229e-02,  3.9228e-03,  6.1773e-03,\n        -2.2929e-02, -1.1852e-02,  1.5960e-02, -6.2404e-03, -1.1234e-02,\n         4.8878e-03,  1.9502e-02, -2.8821e-02,  7.3859e-03,  3.0452e-03,\n         2.9397e-03,  9.2228e-03, -1.4430e-02, -4.1896e-03,  9.3979e-04,\n         9.0732e-03, -2.7754e-03,  1.6825e-02,  6.9850e-03, -2.0301e-02,\n         3.9502e-03, -3.4482e-02,  1.6591e-02,  6.6957e-03, -1.0281e-02,\n         8.6308e-03,  6.7535e-03, -3.9960e-04,  5.6183e-03, -9.9306e-04,\n        -1.5890e-02, -2.3733e-02,  5.9692e-03,  1.0124e-02,  3.8399e-03,\n         5.2039e-03,  1.4267e-02,  1.1547e-02, -9.7194e-03, -1.9128e-02,\n         3.6327e-03,  1.3447e-02,  5.1921e-03, -1.3413e-02,  1.5413e-03,\n         4.3980e-03, -4.0602e-03, -1.2007e-02, -3.5262e-03,  1.3743e-03,\n        -1.2410e-02, -1.2379e-02, -5.8937e-03,  7.9385e-03, -5.7700e-03,\n         5.3524e-03,  7.6544e-03, -1.0899e-02,  1.1165e-02, -6.5125e-03,\n        -1.1075e-03,  1.0600e-02,  4.5664e-03,  2.0232e-02,  6.1710e-03,\n         9.2075e-03, -2.0260e-03,  5.7740e-03, -1.8432e-02, -4.5380e-03,\n         4.2261e-03,  3.1588e-04, -2.2376e-03,  1.3127e-02, -1.0190e-02,\n         9.7277e-03, -9.7720e-03,  6.1706e-03, -1.2623e-02,  1.3708e-02,\n        -9.4368e-03,  1.3195e-02,  9.6795e-03,  5.8103e-03, -5.2275e-03,\n         4.0627e-03, -4.0671e-03, -4.7218e-03,  3.2537e-02,  7.4047e-03,\n        -4.1190e-03,  2.8788e-03, -4.6355e-03, -1.1840e-02,  8.8945e-03,\n        -3.9703e-04,  1.9361e-03,  4.3584e-03,  6.6950e-03,  1.4968e-02,\n         4.5357e-03,  2.7571e-03,  3.5037e-03, -1.0173e-03, -1.0630e-02,\n        -5.0666e-03, -1.1680e-02, -1.0392e-02,  2.2196e-03,  4.1690e-03,\n        -2.9915e-03,  8.7972e-03, -1.1058e-02,  1.1615e-02, -1.4707e-02,\n         5.2509e-03,  6.5006e-04,  1.6271e-02, -9.7923e-03, -1.7662e-02,\n         1.9964e-02,  3.9181e-03,  1.0146e-02, -6.2738e-03, -1.1464e-03,\n        -2.9561e-02, -5.0595e-03,  5.8562e-03,  3.4475e-02,  2.2672e-02,\n         1.2798e-02,  1.5231e-02, -1.4841e-02,  8.9126e-03,  4.5522e-03,\n         8.7248e-03, -3.8945e-03,  2.9491e-03,  2.8291e-03, -1.3862e-02,\n        -9.4814e-03, -7.9775e-03,  1.1644e-02,  6.6133e-03, -3.1685e-04,\n         6.5107e-04,  7.9039e-03, -1.0455e-02, -3.0401e-02,  8.7391e-03,\n         5.8609e-03, -1.8579e-02, -1.5574e-03, -6.1303e-03,  1.0494e-02,\n        -1.4052e-02,  5.5946e-03, -1.2311e-02, -1.2173e-02,  8.9362e-04,\n        -1.0070e-02,  1.5462e-03, -1.8155e-03,  2.7234e-02, -1.5859e-02,\n        -9.0403e-03,  2.6025e-02, -5.8706e-03,  1.1940e-02, -3.1313e-03,\n        -2.6602e-03, -5.1247e-03, -2.1402e-02,  1.3687e-02, -6.4788e-03,\n        -4.1470e-03, -5.1583e-03,  3.5236e-04,  4.2425e-03,  6.5068e-03,\n        -7.3890e-03, -4.5357e-03,  2.5395e-03, -1.1037e-02,  1.2801e-02,\n        -1.3701e-02, -4.6449e-03,  4.2281e-03,  5.4088e-03, -1.3190e-02,\n         1.0889e-02, -2.2249e-03,  2.0781e-02, -1.1465e-02,  4.4899e-03,\n        -4.6000e-04, -7.2982e-03, -4.0822e-03, -2.6955e-03,  9.6976e-03,\n         6.6150e-03,  2.2262e-02, -1.0378e-02,  5.5236e-03, -4.7173e-05,\n         1.5512e-02, -3.0421e-03, -8.5954e-03, -1.6463e-02,  5.9380e-03,\n         9.0233e-03,  7.4321e-03, -5.9554e-03, -6.3343e-03,  3.7697e-03,\n         4.8062e-03, -7.7272e-03, -2.5919e-03,  9.8819e-03,  2.4918e-02,\n        -6.3982e-03,  1.2182e-02])", "transformer_encoder.layers.0.norm2.weight": "tensor([0.9861, 0.9900, 0.9975, 1.0252, 1.0100, 1.0313, 1.0158, 0.9931, 1.0020,\n        0.9991, 0.9932, 0.9875, 0.9985, 0.9998, 1.0044, 0.9951, 1.0051, 1.0039,\n        0.9875, 0.9920, 0.9939, 0.9978, 0.9838, 0.9978, 1.0174, 0.9999, 0.9984,\n        0.9967, 0.9989, 1.0094, 0.9955, 0.9875, 1.0125, 1.0074, 1.0194, 1.0134,\n        0.9976, 1.0124, 0.9864, 1.0093, 1.0061, 1.0226, 1.0012, 0.9980, 1.0073,\n        0.9846, 1.0233, 1.0069, 0.9908, 1.0061, 1.0061, 0.9943, 1.0066, 1.0043,\n        0.9968, 1.0247, 1.0054, 1.0420, 1.0115, 0.9945, 1.0021, 0.9927, 1.0008,\n        0.9966, 1.0171, 1.0097, 0.9904, 1.0039, 1.0028, 1.0023, 0.9891, 0.9986,\n        1.0145, 0.9914, 1.0244, 1.0188, 1.0071, 1.0082, 1.0121, 1.0026, 1.0051,\n        1.0030, 0.9935, 0.9942, 1.0013, 0.9822, 1.0057, 0.9899, 1.0112, 1.0248,\n        1.0022, 1.0023, 0.9766, 0.9980, 0.9907, 0.9875, 1.0061, 1.0084, 1.0061,\n        1.0151, 1.0000, 1.0054, 1.0003, 0.9895, 0.9944, 0.9872, 1.0009, 0.9952,\n        1.0161, 0.9934, 0.9934, 0.9882, 1.0081, 0.9795, 1.0116, 0.9896, 1.0034,\n        0.9907, 1.0158, 1.0121, 0.9980, 1.0159, 0.9999, 1.0114, 1.0115, 1.0122,\n        1.0054, 0.9878, 0.9968, 0.9999, 0.9920, 1.0085, 1.0008, 0.9908, 1.0187,\n        1.0108, 0.9938, 1.0091, 1.0054, 1.0141, 0.9855, 1.0029, 1.0113, 1.0154,\n        1.0076, 0.9851, 0.9872, 0.9910, 0.9922, 1.0009, 0.9928, 1.0046, 1.0070,\n        0.9921, 1.0095, 0.9900, 0.9860, 1.0090, 1.0057, 1.0087, 1.0018, 0.9961,\n        0.9925, 0.9965, 0.9886, 0.9991, 0.9985, 1.0071, 1.0176, 0.9866, 1.0017,\n        0.9805, 1.0026, 0.9827, 1.0155, 1.0150, 0.9951, 0.9966, 0.9922, 0.9998,\n        0.9895, 0.9944, 0.9957, 0.9970, 1.0007, 1.0087, 0.9997, 0.9817, 1.0254,\n        0.9882, 1.0119, 1.0269, 1.0117, 1.0145, 0.9949, 0.9970, 1.0102, 0.9828,\n        1.0016, 1.0031, 0.9985, 0.9970, 0.9965, 1.0273, 1.0170, 0.9932, 0.9822,\n        1.0024, 0.9862, 1.0103, 1.0012, 1.0075, 1.0051, 1.0158, 0.9899, 1.0023,\n        0.9979, 0.9934, 1.0143, 0.9889, 0.9947, 0.9916, 1.0133, 0.9943, 1.0047,\n        0.9793, 1.0018, 1.0265, 1.0026, 0.9937, 1.0133, 0.9868, 1.0040, 0.9877,\n        1.0327, 0.9943, 1.0008, 0.9956, 1.0016, 1.0026, 0.9956, 1.0010, 1.0124,\n        1.0107, 1.0016, 1.0029, 0.9990, 1.0195, 0.9899, 1.0033, 0.9941, 0.9996,\n        1.0000, 0.9872, 0.9912, 1.0109, 0.9925, 1.0064, 1.0171, 1.0221, 0.9963,\n        1.0162, 0.9953, 1.0371, 0.9970, 0.9921, 1.0186, 0.9957, 0.9984, 1.0008,\n        1.0068, 0.9957, 0.9960, 0.9930, 1.0265, 0.9927, 1.0129, 0.9984, 1.0023,\n        1.0022, 1.0032, 1.0175, 0.9831, 1.0102, 1.0084, 0.9992, 0.9986, 0.9944,\n        1.0023, 1.0008, 1.0010, 0.9801, 0.9900, 0.9916, 1.0064, 1.0021, 1.0020,\n        0.9862, 1.0503, 0.9961, 1.0012, 1.0027, 1.0076, 0.9905, 1.0260, 0.9928,\n        1.0170, 0.9975, 1.0269, 1.0026, 1.0028, 0.9869, 1.0004, 1.0031, 1.0034,\n        1.0097, 1.0142, 1.0106, 1.0081, 0.9911, 1.0157, 0.9858, 0.9930, 0.9845,\n        1.0120, 0.9936, 0.9936, 1.0183, 0.9984, 1.0102, 1.0059, 1.0036, 0.9944,\n        0.9955, 0.9983, 1.0178, 0.9952, 0.9965, 0.9977, 0.9981, 1.0014, 0.9979,\n        1.0049, 0.9939, 1.0054, 0.9998, 1.0016, 0.9873, 0.9879, 1.0276, 1.0030,\n        1.0239, 0.9936, 1.0067, 0.9956, 1.0049, 1.0010, 1.0005, 0.9888, 0.9955,\n        1.0086, 1.0136, 1.0161, 0.9964, 1.0305, 1.0043, 0.9999, 1.0032, 1.0266,\n        1.0025, 1.0032, 0.9994, 1.0015, 1.0248, 1.0004, 1.0061, 0.9983, 1.0050,\n        1.0005, 0.9967, 0.9980, 1.0037, 1.0021, 0.9942, 1.0040, 1.0062, 1.0121,\n        1.0165, 1.0016, 1.0027, 1.0088, 1.0054, 1.0073, 1.0059, 0.9979, 0.9996,\n        1.0152, 0.9932, 1.0253, 1.0388, 1.0124, 0.9978, 1.0153, 0.9960, 0.9913,\n        1.0038, 1.0016, 0.9955, 0.9869, 0.9772, 0.9969, 0.9960, 0.9976, 0.9915,\n        1.0237, 1.0079, 1.0130, 1.0003, 0.9824, 0.9941, 1.0053, 1.0160, 0.9960,\n        0.9917, 0.9973, 1.0004, 0.9977, 0.9904, 1.0058, 0.9925, 1.0047, 1.0202,\n        1.0142, 1.0164, 1.0117, 1.0080, 0.9990, 0.9865, 0.9887, 1.0028, 1.0053,\n        0.9889, 0.9864, 1.0012, 1.0029, 1.0074, 1.0088, 1.0258, 1.0052, 1.0037,\n        1.0036, 1.0174, 1.0110, 0.9819, 1.0076, 0.9820, 1.0175, 0.9991, 0.9968,\n        1.0238, 1.0025, 1.0298, 1.0155, 0.9892, 1.0027, 0.9949, 1.0063, 0.9904,\n        1.0184, 1.0003, 0.9968, 1.0032, 1.0085, 0.9885, 1.0275, 0.9932, 1.0274,\n        0.9999, 1.0175, 0.9969, 1.0074, 1.0045, 0.9934, 1.0050, 1.0087, 1.0004,\n        0.9957, 1.0070, 1.0022, 1.0157, 1.0038, 0.9990, 1.0034, 1.0037, 1.0226,\n        0.9978, 1.0047, 1.0136, 1.0000, 0.9988, 1.0003, 0.9879, 1.0214, 1.0401,\n        1.0302, 1.0022, 0.9981, 1.0099, 1.0032, 0.9791, 1.0187, 1.0103])", "transformer_encoder.layers.0.norm2.bias": "tensor([-8.5716e-03, -2.2137e-03, -5.2355e-03,  2.5053e-02,  5.7889e-03,\n        -2.5266e-02,  4.6276e-03,  6.1703e-03, -1.2872e-02,  8.0791e-03,\n        -2.8264e-02, -8.2917e-03, -2.5625e-02, -1.0957e-02,  1.3982e-02,\n         1.4545e-02, -9.1135e-03,  3.0198e-04,  1.2495e-02, -9.1861e-03,\n         2.3368e-02, -2.6713e-03,  1.3308e-02,  3.7352e-04, -2.0474e-02,\n         6.2681e-03, -3.2251e-03, -1.6929e-04, -1.2455e-02, -4.3631e-03,\n        -9.3254e-03, -2.2995e-02,  1.1402e-02,  8.7299e-04,  2.5047e-02,\n         3.9007e-02,  5.1481e-03, -1.5134e-02, -1.1441e-02, -5.8378e-03,\n         1.7371e-02, -3.9368e-02,  2.4970e-02, -2.3441e-03,  1.3608e-02,\n        -3.1912e-03, -7.1640e-04, -1.6396e-02, -1.4657e-03,  1.9574e-02,\n        -3.2565e-03, -1.6959e-02, -1.5744e-03, -1.0841e-02,  4.6064e-03,\n        -5.6233e-03, -1.0532e-02,  1.9450e-02,  7.7589e-03, -2.3866e-02,\n        -2.1310e-03, -1.5878e-02,  1.2135e-03, -6.6299e-03, -4.7873e-03,\n        -4.0456e-03, -1.2670e-02, -4.8593e-03, -2.7790e-03,  3.6275e-03,\n        -7.8276e-03,  9.8428e-03, -1.0951e-02,  3.4243e-03,  2.5810e-02,\n        -1.0746e-02, -7.6332e-03, -8.5719e-04, -3.2202e-03,  5.4158e-03,\n        -3.5521e-04, -5.4800e-03,  2.5920e-02, -7.7802e-03, -2.5889e-02,\n        -1.7967e-03, -2.3999e-03, -1.3210e-02, -6.7369e-04, -9.7166e-03,\n        -8.1213e-03,  1.3665e-03, -6.5794e-03,  2.1293e-03,  8.7365e-03,\n        -1.9851e-02, -5.5246e-03,  2.8804e-03,  2.4995e-03, -2.0980e-03,\n         1.5951e-02, -2.3537e-03, -2.2866e-02, -5.2864e-03,  1.0881e-02,\n         8.4579e-03, -3.1560e-03, -2.7238e-02, -8.1811e-03,  4.7585e-03,\n        -1.5697e-02,  8.2986e-04, -1.9539e-03,  8.3470e-03, -2.7881e-03,\n         1.1330e-02,  2.1634e-02,  2.2033e-03,  9.8077e-03,  4.1571e-02,\n        -9.9882e-03,  2.7399e-02, -1.6589e-02,  4.0032e-03,  6.1562e-04,\n         1.3998e-02,  3.2317e-03,  6.5418e-03,  6.1017e-03,  8.1319e-03,\n         8.0052e-03,  7.2296e-03,  2.5740e-02,  1.5279e-02, -2.5569e-04,\n        -1.1485e-02,  2.7732e-03,  1.4896e-02, -3.7495e-03,  3.1594e-02,\n         1.9193e-02, -9.6201e-03, -7.3672e-03,  1.8991e-02,  7.9732e-03,\n         5.6249e-04, -3.3339e-03,  5.2008e-03, -8.3919e-03, -2.1693e-02,\n         8.5071e-03, -8.4973e-03, -1.8484e-02, -8.1688e-04, -2.4267e-03,\n        -2.8674e-03,  1.4828e-02,  6.3229e-03, -1.9066e-03, -1.1954e-03,\n        -4.8286e-03,  1.5654e-02,  4.9453e-03, -2.2905e-02,  1.3964e-02,\n         2.9415e-03,  1.6089e-03,  4.8621e-03, -5.7586e-03,  9.6359e-03,\n        -2.0632e-02,  3.8779e-04, -5.3711e-03, -2.4765e-02, -2.7421e-03,\n         4.2691e-03, -4.9185e-03,  3.1735e-02, -2.8993e-03,  3.4225e-03,\n         4.2510e-03, -7.2040e-03, -4.9715e-03, -1.3008e-02, -5.6977e-04,\n        -3.1715e-03, -1.6108e-03,  1.1526e-02, -2.0180e-02,  2.3605e-02,\n         1.5107e-03, -3.9395e-02,  3.6271e-03, -2.0335e-02,  1.3618e-02,\n        -1.0555e-02,  5.2049e-03,  3.0052e-02,  7.5300e-03, -1.0440e-03,\n         2.3385e-02, -8.2740e-03, -2.0520e-02, -1.9344e-02, -3.8658e-03,\n         1.5631e-02,  2.7379e-02,  3.7041e-02,  1.1371e-02, -1.6129e-02,\n        -9.7326e-03, -1.3765e-02,  4.1908e-03,  1.0877e-02, -1.2457e-02,\n        -8.6961e-03, -2.2136e-03, -3.1621e-03, -3.9292e-02,  1.3115e-02,\n        -4.4836e-03,  2.7809e-02,  8.4953e-03,  1.6427e-02,  6.3827e-03,\n        -1.0615e-02,  1.0973e-02,  1.8471e-02,  6.3804e-04,  3.0704e-03,\n         2.4321e-03, -1.5914e-02, -6.9404e-03,  7.7046e-03, -1.0098e-02,\n        -2.7711e-02, -5.8085e-04, -5.0398e-04,  8.6164e-03, -6.1830e-03,\n        -1.2534e-02, -2.1439e-02,  1.0080e-02,  1.4384e-03, -4.8696e-04,\n         3.0876e-03,  1.4820e-02,  1.6479e-02,  1.6191e-02,  2.9622e-02,\n         1.8644e-03, -6.1450e-03,  2.7493e-02,  2.4333e-02,  1.9277e-03,\n        -2.0603e-02, -1.7413e-02,  4.3803e-03, -5.0243e-03, -1.3690e-02,\n         1.4543e-02,  1.6111e-02, -1.6701e-02, -1.8081e-04,  1.2364e-02,\n         1.0107e-02, -2.1538e-03, -5.3953e-03, -7.9062e-03,  6.3668e-03,\n        -7.3651e-03,  1.2999e-02, -6.0915e-03,  2.9958e-03, -5.8166e-03,\n        -1.8755e-03,  5.7200e-03, -8.6660e-03,  1.6438e-04, -1.8990e-03,\n         6.0474e-04, -2.3725e-02, -3.2020e-03, -1.8707e-02, -1.9663e-02,\n        -1.5390e-02,  2.2825e-02,  3.2419e-02,  1.3723e-02,  3.7330e-04,\n        -2.5713e-02, -2.1212e-03,  8.7498e-03, -2.9348e-03,  1.5447e-02,\n        -2.3083e-03,  1.9721e-02, -1.0888e-02,  8.0144e-03,  2.1041e-02,\n         1.4613e-02,  1.3751e-02, -8.5880e-03,  7.6529e-03,  1.9539e-03,\n         1.8985e-03, -1.0444e-02,  1.3316e-02,  1.0095e-02, -1.8463e-02,\n         6.0831e-03, -2.0373e-02,  2.9104e-03,  2.7192e-03, -4.7224e-04,\n         5.5578e-03,  1.1401e-02,  1.2683e-03, -8.1435e-03,  2.0732e-02,\n        -2.1082e-02, -1.0391e-02, -5.8110e-03, -3.2420e-03, -1.8828e-03,\n        -1.5724e-02,  4.4371e-03,  2.8375e-03, -7.4059e-05, -1.5903e-02,\n        -2.7034e-04,  1.3984e-02, -1.1117e-02, -1.3239e-02, -9.6795e-03,\n        -3.2065e-03,  1.8992e-03, -8.1498e-03,  8.6863e-03, -4.5240e-03,\n        -5.7597e-03,  2.3859e-03, -3.5418e-03, -6.1920e-03,  8.6153e-03,\n        -1.5711e-03,  4.6523e-03, -1.7770e-03, -7.1795e-03, -2.4363e-02,\n        -3.6184e-03,  2.8426e-02,  1.0695e-02,  1.4113e-02, -1.0747e-02,\n         2.4461e-02,  4.8746e-03, -3.4413e-03,  1.5351e-02, -1.4625e-02,\n        -7.4754e-04,  1.2908e-02, -1.8144e-02,  8.4312e-03, -1.6731e-02,\n        -4.2466e-03,  8.5513e-03,  1.5601e-03, -3.9116e-03,  3.2567e-02,\n        -6.2868e-04,  1.6900e-02,  1.6380e-03, -3.1378e-03, -6.9400e-03,\n         2.3189e-03,  6.2240e-03, -3.9567e-03,  5.0302e-02,  1.1397e-02,\n         4.3690e-03,  9.0749e-03, -1.1653e-03, -1.8181e-02,  1.7952e-02,\n        -5.4255e-03, -3.6864e-03,  1.1880e-02,  3.9831e-03, -7.8548e-03,\n         1.1458e-03, -1.9764e-03,  7.7427e-03,  8.2797e-04, -1.3028e-02,\n         1.3226e-02, -1.4840e-02, -1.5225e-03, -9.5940e-03,  1.1858e-02,\n        -7.1120e-03,  1.2324e-02, -3.2671e-02,  2.1538e-02, -1.7881e-02,\n         2.7407e-02, -4.7600e-03,  1.1398e-02, -2.4394e-02, -1.8048e-02,\n         1.3502e-02, -7.1072e-03, -1.5766e-03,  4.6269e-03, -4.6229e-03,\n        -2.2417e-02, -2.7017e-02,  1.6079e-04,  2.9200e-02,  2.7746e-02,\n         1.0996e-02,  2.6471e-02, -1.0525e-02,  1.3281e-03, -1.9517e-02,\n         5.1214e-03,  3.7952e-04, -1.4270e-02,  1.8082e-02, -9.0786e-04,\n        -7.5403e-03, -3.9795e-02,  3.1745e-02,  7.9035e-04,  9.9630e-04,\n        -2.2467e-03,  7.7542e-04,  2.1432e-03, -3.2695e-02,  6.9608e-03,\n         1.8658e-02, -1.5881e-02, -2.4783e-02, -2.5768e-04, -1.8729e-03,\n        -1.1974e-02,  2.6480e-03, -2.0855e-02, -1.0921e-02, -9.9266e-03,\n        -2.5734e-02,  6.2965e-05, -3.5944e-03,  1.6803e-02, -1.8396e-02,\n         5.6169e-03,  2.6373e-02,  3.6578e-03,  1.7335e-02, -1.5189e-02,\n         9.2731e-03, -2.1995e-02, -3.0679e-02, -6.0095e-04, -1.6674e-02,\n        -2.7851e-02, -2.6534e-04, -1.4237e-03,  1.5129e-03,  5.2515e-03,\n         3.8121e-03,  1.3077e-03, -5.6641e-03,  3.9252e-03,  2.4441e-02,\n         2.5636e-03, -1.8503e-02,  8.4857e-04,  1.0599e-02, -1.2672e-02,\n        -5.8654e-03,  1.0507e-02,  1.7635e-02, -1.1995e-02,  6.5118e-03,\n         1.0097e-03,  2.2129e-03, -4.8022e-03,  1.6783e-02,  1.5090e-02,\n         1.9681e-02,  1.8497e-02, -1.4713e-02, -7.5485e-03, -1.4647e-02,\n         1.1182e-02,  3.2418e-03,  5.8982e-03, -2.7038e-02, -9.2857e-03,\n        -5.4798e-03, -5.5265e-03, -1.1773e-02, -1.2125e-02,  1.8108e-02,\n         6.3765e-03, -1.6904e-03, -3.4587e-03,  3.3657e-02,  1.1840e-02,\n         1.7414e-03,  1.7403e-02])", "transformer_encoder.layers.1.self_attn.in_proj_weight": "tensor([[-0.0112,  0.0148, -0.0097,  ...,  0.0529,  0.0052,  0.0425],\n        [-0.0073,  0.0301,  0.0208,  ...,  0.0592,  0.0086,  0.0616],\n        [-0.0049, -0.0433,  0.0433,  ...,  0.0077, -0.0248,  0.0308],\n        ...,\n        [-0.0274,  0.0729,  0.0381,  ..., -0.0064, -0.0123,  0.0551],\n        [-0.0009, -0.0131,  0.0299,  ...,  0.0312, -0.0156,  0.0334],\n        [-0.0279, -0.0854,  0.0476,  ..., -0.0447,  0.0324,  0.0031]])", "transformer_encoder.layers.1.self_attn.in_proj_bias": "tensor([-0.0076,  0.0270, -0.0016,  ..., -0.0098, -0.0158, -0.0136])", "transformer_encoder.layers.1.self_attn.out_proj.weight": "tensor([[-0.0061, -0.0068, -0.0064,  ...,  0.0007,  0.0118,  0.0329],\n        [ 0.0110,  0.0085, -0.0012,  ..., -0.0239,  0.0064,  0.0258],\n        [ 0.0113,  0.0074,  0.0126,  ..., -0.0097, -0.0140, -0.0063],\n        ...,\n        [-0.0140,  0.0053,  0.0059,  ..., -0.0022,  0.0047,  0.0183],\n        [-0.0040, -0.0069, -0.0003,  ...,  0.0087,  0.0110, -0.0026],\n        [-0.0318,  0.0075,  0.0088,  ..., -0.0190, -0.0005,  0.0088]])", "transformer_encoder.layers.1.self_attn.out_proj.bias": "tensor([-1.0325e-02, -4.2569e-03,  1.6860e-03,  1.7027e-02, -2.6304e-03,\n        -3.2900e-02, -7.4626e-03,  7.5676e-03, -7.7027e-03,  6.1115e-03,\n        -9.4706e-03, -7.7546e-03, -2.4628e-02, -2.3859e-03,  5.8720e-03,\n         9.2338e-03, -1.2541e-03,  2.8674e-03,  1.8149e-03, -2.9131e-03,\n         1.8603e-02, -4.4955e-03,  6.9198e-03,  9.0848e-03, -2.3546e-02,\n        -5.0887e-03, -5.0126e-03, -1.3480e-04, -1.4418e-02, -2.0856e-03,\n         1.3148e-03, -9.6106e-03,  7.7019e-03,  4.9209e-04,  1.6395e-02,\n         1.8625e-02,  1.0567e-02, -1.7560e-02, -1.2310e-02, -7.3026e-03,\n         7.7841e-03, -1.7600e-02,  1.3893e-02,  3.5878e-06,  7.4383e-03,\n         2.4452e-03,  1.6784e-03, -1.1728e-02, -4.1723e-03,  4.2910e-03,\n         2.8356e-04, -1.1713e-02,  1.8580e-03,  1.9616e-03,  2.4069e-03,\n         4.2179e-03, -3.1400e-03,  5.0868e-03,  4.4275e-03, -1.0802e-02,\n        -6.5299e-03, -1.0030e-02,  3.9015e-03, -1.0449e-03,  3.9146e-03,\n        -1.8871e-03, -1.3783e-02,  5.2753e-04, -7.4081e-04,  5.8188e-03,\n        -1.9141e-03,  1.3538e-02, -3.6751e-03, -3.2534e-03,  1.7044e-02,\n        -1.0708e-02, -7.8848e-03,  1.1800e-04, -3.4184e-03, -2.0084e-03,\n        -3.8514e-03, -1.1019e-03,  1.3614e-02, -2.4970e-04, -6.7634e-03,\n        -3.6226e-03, -6.8206e-03, -2.9918e-03, -5.8746e-03, -1.0644e-02,\n         1.4431e-03,  4.2237e-03, -3.3181e-03, -8.2583e-04,  3.2654e-03,\n        -2.3666e-02,  5.1348e-05,  4.7008e-03,  5.9604e-03,  5.8733e-03,\n         6.2883e-03, -2.5358e-03, -6.3579e-03, -4.1360e-03,  5.4151e-03,\n         5.4805e-03, -2.9601e-03, -3.6581e-02, -7.2359e-03,  8.4254e-04,\n        -1.6985e-02,  1.0273e-03, -1.4497e-03,  3.8911e-03,  2.4575e-03,\n         8.2015e-03,  1.6978e-02,  1.9650e-03,  2.7672e-03,  2.2452e-02,\n        -5.5551e-03,  3.2316e-02, -1.1635e-02,  2.4354e-03,  2.1810e-03,\n         6.8202e-03,  6.9229e-03, -4.8205e-03,  2.4982e-03,  5.2576e-03,\n         4.3684e-03,  2.8552e-03,  9.6607e-03,  1.4382e-03,  1.7618e-03,\n        -3.5287e-03,  5.4643e-03,  1.1156e-02, -3.1240e-03,  3.3768e-02,\n         1.4863e-02, -4.6330e-03, -3.8973e-04,  7.5217e-03,  9.5418e-03,\n        -1.5541e-03, -1.5555e-03,  1.9939e-03,  3.6424e-03, -6.6597e-03,\n         8.2594e-03, -4.2850e-03, -1.3267e-02,  5.7282e-04, -7.4317e-05,\n        -6.5789e-03,  2.5756e-03,  1.3050e-03,  3.7487e-03,  5.1815e-03,\n         1.2488e-04,  1.0510e-02,  7.6484e-03, -4.6240e-03,  1.0938e-02,\n        -2.3067e-03,  2.2602e-03, -7.2401e-04,  1.7325e-03,  1.0383e-03,\n        -8.1506e-03,  5.1260e-03, -4.8063e-04, -9.2407e-03,  1.2856e-03,\n         9.0357e-04, -1.7307e-03,  2.4963e-02, -3.2830e-03,  2.0093e-03,\n         1.4058e-03,  2.9073e-05, -6.9586e-03, -4.1196e-03, -3.2080e-03,\n         7.8249e-04, -6.6611e-03,  5.3891e-03, -3.2610e-02,  1.1119e-02,\n        -1.1791e-03, -3.7073e-02,  5.0004e-04, -2.0876e-02,  2.1185e-03,\n        -7.3328e-03,  5.8782e-03,  3.3423e-02, -3.7544e-04,  6.9113e-05,\n         1.9851e-02, -3.7938e-03, -3.3080e-02, -1.4961e-04,  2.6263e-03,\n         7.6318e-03,  1.2737e-02,  4.4934e-02,  8.2554e-03, -1.2068e-02,\n        -5.3438e-04, -3.2116e-03,  4.1638e-04,  1.6068e-02, -4.5296e-03,\n        -1.6752e-03, -3.0162e-03,  1.6436e-03, -2.6911e-02,  5.9052e-03,\n        -5.3402e-04,  8.7973e-03,  4.1516e-04,  6.0762e-03,  3.7732e-03,\n        -1.4736e-02,  5.3325e-03,  2.8406e-02,  1.2141e-03, -5.3167e-04,\n         3.7663e-03, -9.9594e-03, -3.0160e-03,  2.4908e-04, -5.0721e-03,\n        -9.2717e-03, -4.9528e-04, -4.8785e-03,  9.8290e-03, -9.9816e-04,\n        -4.9126e-03, -1.5441e-02,  7.1403e-03,  1.4070e-03,  5.7092e-03,\n         3.1572e-03,  2.8963e-03,  2.0500e-02,  3.8463e-03,  3.2763e-02,\n         1.0494e-03, -3.2702e-03,  2.9928e-02,  1.3787e-02, -7.1607e-04,\n        -1.0446e-02, -9.4110e-03,  1.4845e-02,  6.1520e-04, -8.8565e-03,\n         1.5102e-02,  7.2967e-03, -1.3947e-02,  1.7870e-03,  1.7493e-03,\n         4.4552e-03,  8.4671e-03, -1.5577e-03, -3.3589e-03,  6.5228e-03,\n        -3.8901e-03,  2.2933e-03, -1.6104e-03,  1.8674e-03, -2.1980e-03,\n        -6.3443e-03,  4.2649e-04, -8.3684e-03,  2.6926e-03,  3.1869e-03,\n        -1.0340e-03, -2.8806e-02,  9.3898e-04, -1.2415e-02, -5.7832e-03,\n        -5.9652e-03,  1.1708e-02,  2.3107e-02,  6.8627e-03, -8.9249e-05,\n        -1.2779e-02,  8.5165e-06, -2.0228e-03, -5.3713e-03,  1.8151e-03,\n        -1.9909e-03, -5.1249e-04, -7.1939e-03,  1.4125e-03,  1.3658e-02,\n         1.4059e-02,  3.0157e-03, -1.7213e-03, -4.7851e-03,  1.1602e-03,\n         4.9912e-03, -2.5471e-03,  1.0305e-02, -2.3152e-03, -5.8538e-03,\n         6.4963e-03, -1.4721e-02, -2.6998e-03,  2.3154e-03,  1.1833e-04,\n         4.1511e-03,  1.2396e-02,  2.6227e-03, -2.0750e-03,  9.2747e-03,\n        -5.9535e-03, -4.1071e-04, -5.0295e-03, -4.5855e-03, -1.9868e-03,\n        -7.2288e-03, -8.1546e-03, -1.0751e-03,  1.7105e-03, -7.7113e-03,\n        -2.8867e-03,  7.3109e-03, -5.4108e-03, -8.5772e-03, -3.7398e-04,\n        -2.4652e-03,  3.3260e-03, -3.7255e-03,  4.1347e-03,  8.1906e-04,\n        -2.1504e-03,  1.3991e-03, -5.1010e-03, -9.8005e-03,  6.1466e-03,\n        -1.1902e-03,  4.9125e-03,  5.2271e-03, -1.5466e-03, -1.0404e-02,\n        -2.1644e-03,  2.2147e-02,  3.3503e-03,  5.1850e-03,  3.0130e-04,\n         7.0953e-03,  1.0478e-03, -2.5654e-03,  1.9411e-03, -9.3053e-03,\n        -2.5920e-03,  2.1078e-03, -1.4468e-02,  1.2418e-03, -1.5080e-02,\n        -4.6658e-03,  1.8906e-03,  2.7208e-03, -4.7678e-04,  2.0005e-02,\n        -6.7735e-04,  5.2785e-03, -4.5262e-04,  2.1924e-04, -9.0820e-03,\n         8.7027e-03,  1.1892e-02, -5.6731e-03,  3.5485e-02,  5.0845e-03,\n         1.5838e-03,  9.5025e-03, -4.4101e-03, -1.2903e-02,  1.1617e-02,\n        -2.3567e-02, -3.3393e-03,  1.4238e-02, -1.2488e-03, -7.5240e-03,\n         5.8868e-03, -7.2171e-04,  4.1193e-03,  6.8827e-03, -2.2303e-03,\n         2.5987e-03, -1.0075e-02, -6.1953e-03, -2.2550e-03,  2.2122e-03,\n        -4.9613e-03,  6.4694e-03, -1.5668e-02,  3.7847e-03, -9.6216e-04,\n         1.3127e-02,  5.0889e-03,  9.5256e-03, -6.7829e-03, -2.4102e-02,\n         5.9538e-03, -3.2872e-03,  1.1106e-03, -1.9112e-04,  5.9044e-04,\n        -2.7463e-02, -3.5997e-02,  1.3865e-03,  1.5512e-02,  2.5429e-02,\n        -5.0892e-03,  1.4394e-02, -8.7244e-03, -3.9943e-03, -2.3157e-02,\n         1.3119e-02, -2.7363e-03, -3.7274e-03,  9.1837e-03, -2.2780e-03,\n        -4.9639e-03, -5.4619e-02,  2.4569e-02, -5.3042e-03,  4.8864e-03,\n        -3.4443e-03, -4.4656e-03, -2.8364e-03, -2.1089e-02,  3.2857e-03,\n        -1.1643e-03, -4.6231e-03, -1.4415e-03,  2.5262e-03, -2.0942e-03,\n        -6.7529e-04,  3.0536e-03, -2.0887e-02, -4.7810e-03,  8.0159e-04,\n        -1.0517e-02, -2.1163e-03, -2.5328e-03,  2.0930e-02, -2.4827e-02,\n         6.8552e-03,  9.5877e-03,  8.6805e-04,  1.2654e-02, -2.1102e-02,\n         1.1369e-02, -2.4114e-02, -2.0166e-02, -6.0263e-03, -9.3497e-03,\n        -8.4654e-03,  6.8012e-04, -1.1590e-02,  5.5164e-03,  6.4693e-03,\n         1.5167e-03,  2.0049e-03, -4.7990e-03,  2.3596e-03,  3.2866e-02,\n        -8.7345e-04, -2.8334e-02,  8.8023e-03,  1.1231e-02, -8.8856e-03,\n        -5.1717e-03,  8.2590e-03,  2.6810e-03, -1.0900e-02,  8.4714e-03,\n         3.2817e-03,  8.5513e-03, -1.5473e-04,  1.8444e-02,  2.6063e-03,\n         5.9444e-03,  3.9544e-03, -7.6103e-03, -7.8391e-03, -2.5267e-02,\n         6.6032e-03, -9.0517e-03,  1.1034e-02, -1.1695e-02, -7.8424e-03,\n        -3.9378e-03,  2.8726e-03, -1.3127e-02, -1.6378e-02,  2.2136e-02,\n         9.4666e-03, -1.0319e-03, -7.3055e-03,  1.4594e-02,  9.2048e-03,\n        -1.4462e-03,  5.2897e-03])", "transformer_encoder.layers.1.linear1.weight": "tensor([[ 0.0447, -0.0134, -0.0406,  ...,  0.0183,  0.0030, -0.0424],\n        [-0.0158, -0.0042, -0.0343,  ..., -0.0345, -0.0052, -0.0240],\n        [-0.0122, -0.0224, -0.0436,  ..., -0.0300,  0.0054, -0.0304],\n        ...,\n        [ 0.0342,  0.0433,  0.0040,  ...,  0.0134, -0.0125, -0.0306],\n        [-0.0335, -0.0410, -0.0008,  ..., -0.0010,  0.0395,  0.0037],\n        [-0.0133,  0.0087, -0.0271,  ..., -0.0044, -0.0247,  0.0199]])", "transformer_encoder.layers.1.linear1.bias": "tensor([ 0.0202, -0.0092,  0.0276,  ...,  0.0210, -0.0349, -0.0102])", "transformer_encoder.layers.1.linear2.weight": "tensor([[ 0.0116, -0.0038,  0.0199,  ...,  0.0317, -0.0087, -0.0032],\n        [-0.0080,  0.0016,  0.0048,  ..., -0.0019,  0.0007, -0.0019],\n        [-0.0136,  0.0014, -0.0092,  ...,  0.0062, -0.0015,  0.0112],\n        ...,\n        [-0.0181,  0.0071, -0.0007,  ..., -0.0060,  0.0020, -0.0021],\n        [-0.0129,  0.0118, -0.0105,  ..., -0.0083, -0.0010,  0.0041],\n        [ 0.0078, -0.0011,  0.0160,  ...,  0.0075, -0.0009, -0.0017]])", "transformer_encoder.layers.1.linear2.bias": "tensor([-7.7181e-04, -1.7703e-03,  2.9498e-03,  2.4163e-02,  1.1190e-02,\n        -6.3195e-02,  8.8218e-03,  2.3878e-03, -2.4913e-02,  7.1515e-03,\n         4.6240e-03, -1.0167e-02, -3.6772e-02, -5.7585e-03,  6.0588e-03,\n         9.5460e-04, -3.0148e-03, -4.8072e-03,  7.8412e-03,  6.8036e-04,\n         2.5613e-02,  2.4634e-03,  7.9236e-03, -1.5113e-03, -4.4551e-02,\n         5.2995e-03, -7.3594e-03,  2.3775e-03, -4.0924e-03, -1.7735e-02,\n         1.1341e-02,  2.3863e-03,  3.3089e-03,  3.3648e-03, -1.2779e-03,\n         9.1582e-03,  2.0382e-02, -3.5417e-02, -5.8762e-03, -7.1188e-03,\n         1.0159e-02,  4.6495e-03, -5.9451e-03,  6.3154e-03,  9.1746e-03,\n         1.1471e-02,  2.7664e-02, -2.4394e-03, -2.9503e-03, -3.4299e-03,\n        -7.2201e-04,  1.7440e-02, -4.2849e-03, -2.2682e-03, -9.9410e-03,\n         1.8432e-02,  4.7348e-03,  4.4804e-03,  7.9507e-04, -1.7832e-02,\n        -1.6316e-03, -2.5754e-03, -5.5258e-03, -2.3619e-03, -2.1377e-03,\n        -1.5636e-04, -2.3021e-02,  6.1070e-04, -1.3184e-03, -2.1327e-03,\n        -5.0168e-03,  1.1686e-02, -1.3799e-02, -6.2863e-04,  1.9236e-02,\n         3.2577e-03, -1.9241e-03,  2.5161e-04,  5.4629e-03, -1.6539e-02,\n        -1.7073e-03, -1.0143e-02,  1.0243e-02, -7.0893e-03, -3.8449e-03,\n        -8.0313e-03, -2.6914e-02, -5.4456e-03,  1.5726e-03, -1.4793e-02,\n         1.6684e-02, -1.9588e-03,  2.0948e-03,  5.9200e-03,  4.8391e-03,\n        -4.4110e-02, -1.0032e-02, -1.9203e-03,  4.7178e-03,  4.8874e-03,\n        -2.6607e-03,  1.6366e-03, -9.1548e-03, -1.0741e-02,  9.4785e-03,\n         2.6412e-04, -3.2431e-04, -3.0742e-02, -1.4305e-02,  7.6154e-03,\n        -3.0758e-03, -1.1400e-02, -1.9489e-02,  3.8709e-03, -1.1454e-02,\n         8.6182e-03,  2.8953e-02,  8.9375e-04,  1.1002e-03,  2.3684e-02,\n         1.2736e-03,  4.1301e-02,  6.3260e-03, -5.9811e-03,  1.9979e-02,\n         1.0827e-02,  1.4150e-02, -4.8245e-03,  1.5487e-02, -9.9193e-03,\n         4.7082e-03,  3.7281e-03,  2.8417e-03,  6.7601e-04,  1.1823e-03,\n         6.7998e-03,  1.5613e-02,  1.4956e-02, -4.2811e-03,  5.3048e-02,\n         1.6637e-02, -1.3517e-02, -4.1202e-03, -2.6568e-03,  1.5321e-02,\n        -4.8157e-03, -6.5157e-04,  1.2108e-02,  3.8125e-03, -5.1612e-03,\n        -4.6265e-03, -1.1413e-02, -1.4222e-02,  1.0156e-03, -3.5434e-03,\n        -1.4876e-02,  3.5708e-03, -1.0079e-03,  5.5423e-03,  5.9850e-03,\n        -2.6370e-04,  1.0748e-02, -8.0530e-05, -6.1810e-03,  3.9214e-03,\n         3.5157e-03,  8.2531e-04, -1.9486e-03, -9.8394e-03, -2.4032e-03,\n        -1.5595e-02,  1.5913e-02,  5.3327e-03, -5.9543e-03,  6.6390e-03,\n         1.1511e-02, -8.0603e-04,  2.8539e-02, -7.9532e-03,  3.8262e-03,\n         2.8679e-04, -2.0636e-03,  3.5069e-03, -1.5245e-03, -9.2826e-03,\n        -5.1333e-03, -4.6213e-03,  6.3867e-03, -5.3191e-02,  1.1922e-02,\n        -9.2359e-03, -5.2886e-02, -3.2408e-03, -1.8890e-02, -2.7196e-02,\n        -1.4092e-02,  4.1237e-03,  3.0874e-02, -7.3392e-03, -6.6264e-04,\n         2.1899e-02,  2.0848e-03, -4.4782e-02, -5.9606e-03,  2.3309e-02,\n         1.3826e-02, -4.7937e-03,  5.8109e-02,  4.4398e-03,  7.7512e-03,\n        -5.6467e-03, -6.6648e-03, -3.3269e-04,  3.1123e-02, -8.3187e-03,\n         2.6416e-03, -1.4836e-03,  1.5847e-02, -2.9492e-03,  5.0961e-03,\n        -3.6995e-03, -8.7212e-03,  7.1718e-03,  2.7067e-03,  5.8823e-03,\n        -7.3386e-03,  4.3435e-03,  3.6709e-02,  5.7806e-03, -2.6092e-03,\n         2.3888e-02, -6.0840e-03, -1.6736e-03,  4.0695e-03, -3.3936e-03,\n        -6.9849e-03, -1.6471e-03,  8.0003e-03,  4.8340e-03, -2.5017e-03,\n         6.5085e-03, -3.0407e-03,  3.3879e-03,  1.3028e-02,  3.0181e-02,\n         4.9770e-03, -4.4985e-03,  3.3034e-02, -7.6473e-04,  4.8178e-02,\n         1.8279e-02, -2.2898e-03,  2.5728e-02,  1.0331e-02, -2.1608e-03,\n        -2.9159e-03, -5.0362e-03,  2.6357e-02, -4.6603e-03, -8.1477e-03,\n         3.1388e-02,  3.1126e-03,  2.2183e-03,  1.6247e-03,  6.6009e-03,\n         4.9463e-03, -6.4121e-03, -3.3331e-03,  1.4224e-03,  1.4284e-02,\n        -6.7256e-03,  9.8521e-03, -4.9831e-03,  9.3286e-05, -5.2482e-03,\n        -1.4981e-03,  6.8078e-04, -1.7971e-02, -7.4320e-05,  9.5009e-03,\n        -4.5399e-03, -4.6846e-02,  4.4971e-03, -5.2843e-03,  2.1354e-03,\n         5.5612e-03,  6.0649e-03,  1.9532e-02,  1.9593e-02,  2.5253e-04,\n        -1.2565e-02,  5.9899e-03, -4.4985e-03, -4.4516e-03,  7.6845e-03,\n        -1.1839e-02,  1.0283e-02, -5.7119e-03, -5.6085e-03,  1.4570e-02,\n         4.2310e-03,  5.3329e-03,  6.0069e-03, -2.2788e-02, -3.4064e-05,\n         3.8702e-03, -4.5272e-03, -1.2229e-02, -1.4942e-02, -2.1417e-03,\n         1.3650e-02, -2.1292e-02,  2.4757e-03,  7.2412e-03, -8.7671e-03,\n         7.7174e-03,  8.4217e-03,  1.8493e-02, -7.9303e-03,  1.2532e-02,\n         8.5502e-03,  2.9511e-04, -1.7286e-02, -5.2819e-03,  1.5989e-03,\n        -4.7118e-03, -1.3429e-02, -1.4645e-02,  1.7414e-03, -8.7084e-03,\n         2.1540e-03,  1.7789e-03, -2.1049e-02, -1.1857e-02, -9.0852e-03,\n         4.8103e-03, -7.8755e-03, -4.7047e-03,  1.6128e-03, -7.8410e-03,\n        -3.4205e-03,  4.1789e-03, -3.4713e-03, -1.4831e-02,  2.2651e-03,\n         8.5933e-03,  4.5855e-03,  1.3613e-02, -1.4223e-04, -4.6976e-03,\n        -6.9267e-03,  3.7806e-02,  1.4666e-03,  4.0221e-03,  8.3066e-03,\n         1.2860e-02, -1.6380e-04,  4.0331e-03,  6.1496e-03,  6.0622e-03,\n        -7.3021e-03,  8.4855e-03, -1.2184e-02,  1.9928e-03, -1.5849e-02,\n        -9.8618e-03,  2.7262e-05,  1.5766e-03,  1.4427e-03,  1.7413e-02,\n         5.4192e-03, -2.3545e-03, -7.5607e-04, -2.6222e-04,  1.4337e-03,\n         1.4294e-02,  1.1816e-02, -4.2648e-03, -7.2409e-03,  3.7663e-03,\n        -1.5076e-03,  1.7040e-03,  1.8210e-03, -8.6213e-03, -7.2941e-04,\n        -3.1278e-02, -6.9447e-03,  1.2603e-02, -1.2799e-02, -8.2568e-03,\n         1.3150e-02, -4.5783e-03, -3.5801e-03,  2.6904e-02,  8.6113e-03,\n         4.3397e-04,  6.2602e-03, -1.2197e-02, -1.7374e-02, -2.6642e-03,\n        -8.0383e-03, -3.9456e-03, -2.5727e-03,  5.8369e-03, -1.0008e-03,\n         8.8792e-03, -3.2207e-03,  7.0765e-03, -7.6457e-03, -4.7286e-03,\n         1.3579e-03, -8.0691e-03, -4.6673e-04, -4.8733e-03,  1.3000e-02,\n        -2.9984e-02, -4.4541e-02,  3.4051e-03,  1.3493e-02,  3.5234e-02,\n        -5.3343e-03,  2.8238e-03,  3.7958e-03, -9.0545e-03, -4.8551e-02,\n         2.5634e-02, -1.1089e-03, -2.3713e-03,  1.0884e-02, -2.6186e-03,\n        -5.8697e-03, -7.3082e-02,  2.9524e-02, -8.7145e-03, -6.0457e-03,\n        -3.9695e-03, -1.9024e-05, -1.7287e-03, -9.3633e-03,  8.3386e-03,\n        -1.1649e-02,  1.7488e-02,  2.4126e-04,  5.9863e-03,  4.4904e-03,\n        -9.1694e-03, -6.3512e-03, -3.2248e-02, -3.6075e-03, -1.5861e-03,\n        -2.7643e-03, -2.3739e-02,  5.1685e-03,  3.3258e-02, -2.0290e-02,\n         8.3454e-03,  2.5936e-03, -1.6853e-03,  1.4162e-02, -3.2331e-02,\n         8.9006e-03, -5.1617e-02, -1.8559e-02, -8.3214e-03, -5.8770e-03,\n        -8.0324e-03, -2.3344e-03, -5.6693e-03,  1.3867e-02, -2.2208e-03,\n        -8.1124e-04, -9.1225e-03, -3.6286e-03, -3.7346e-03,  5.1163e-02,\n         3.9842e-03, -3.2650e-02,  1.3330e-02, -2.9996e-04, -5.3209e-03,\n        -1.8727e-02,  8.0657e-03, -4.4896e-03, -1.0889e-02,  8.3197e-03,\n         1.1552e-02,  1.3565e-02,  3.1367e-03,  2.7514e-02, -1.4022e-03,\n         4.0868e-03, -1.1795e-03, -9.5004e-03,  2.2888e-03, -4.8457e-02,\n         4.9427e-03, -2.6066e-03,  1.6864e-02, -1.5946e-02,  3.2004e-03,\n        -3.6020e-03,  7.3752e-03, -1.4039e-02, -3.2443e-02,  2.9362e-02,\n        -6.0916e-03,  3.7915e-03, -1.4539e-02,  7.9452e-03, -1.8113e-04,\n        -1.7713e-03, -1.0896e-03])", "transformer_encoder.layers.1.norm1.weight": "tensor([0.9887, 0.9926, 0.9923, 1.0233, 1.0059, 1.0513, 1.0033, 0.9962, 0.9858,\n        0.9963, 0.9883, 0.9883, 1.0080, 0.9993, 1.0045, 0.9910, 0.9987, 0.9998,\n        0.9766, 0.9869, 1.0023, 0.9965, 0.9850, 0.9929, 1.0243, 0.9970, 1.0007,\n        1.0017, 0.9964, 1.0019, 1.0045, 0.9876, 1.0112, 0.9996, 1.0059, 1.0037,\n        1.0037, 1.0320, 0.9834, 1.0096, 1.0052, 1.0151, 1.0038, 0.9917, 0.9994,\n        0.9884, 1.0202, 1.0036, 0.9926, 1.0012, 1.0073, 0.9984, 1.0000, 0.9903,\n        0.9962, 1.0203, 1.0011, 1.0118, 1.0058, 0.9883, 0.9979, 0.9917, 0.9918,\n        0.9973, 1.0081, 1.0057, 1.0010, 1.0002, 0.9995, 1.0020, 0.9802, 0.9999,\n        0.9999, 0.9962, 1.0387, 1.0073, 1.0172, 1.0098, 1.0003, 1.0054, 0.9928,\n        0.9988, 0.9901, 1.0003, 0.9954, 0.9750, 1.0143, 0.9863, 1.0007, 1.0217,\n        1.0053, 0.9967, 0.9812, 1.0059, 0.9907, 1.0060, 0.9957, 1.0062, 1.0006,\n        1.0024, 0.9996, 1.0026, 1.0051, 0.9938, 0.9845, 0.9756, 0.9978, 1.0007,\n        1.0066, 0.9856, 0.9981, 0.9746, 1.0166, 0.9849, 0.9911, 0.9896, 1.0050,\n        0.9842, 1.0097, 1.0065, 0.9999, 1.0275, 0.9971, 1.0046, 1.0053, 1.0062,\n        1.0020, 0.9990, 0.9949, 1.0171, 0.9881, 1.0050, 1.0039, 0.9914, 1.0209,\n        1.0118, 0.9913, 1.0104, 0.9992, 1.0348, 0.9826, 0.9971, 1.0055, 1.0136,\n        1.0029, 0.9836, 0.9817, 0.9811, 0.9923, 0.9916, 0.9796, 1.0034, 0.9975,\n        0.9910, 1.0060, 0.9880, 0.9971, 0.9993, 1.0121, 1.0140, 0.9941, 1.0046,\n        1.0045, 0.9924, 0.9879, 1.0023, 0.9976, 1.0010, 1.0045, 0.9868, 0.9977,\n        0.9875, 1.0014, 0.9821, 1.0188, 1.0071, 0.9891, 1.0059, 0.9976, 0.9972,\n        0.9839, 0.9923, 0.9951, 0.9891, 0.9914, 1.0023, 0.9989, 0.9810, 1.0298,\n        0.9870, 1.0036, 1.0380, 1.0000, 1.0154, 0.9984, 0.9930, 1.0076, 0.9916,\n        0.9983, 0.9966, 1.0011, 0.9956, 1.0103, 1.0125, 1.0165, 0.9892, 0.9901,\n        1.0304, 0.9925, 1.0101, 0.9953, 0.9980, 1.0050, 1.0248, 0.9881, 0.9904,\n        0.9947, 0.9956, 1.0061, 0.9881, 0.9912, 0.9909, 1.0087, 0.9974, 1.0106,\n        0.9841, 1.0063, 1.0304, 1.0103, 0.9920, 1.0277, 0.9842, 0.9968, 0.9877,\n        1.0191, 0.9940, 1.0017, 0.9967, 1.0060, 1.0079, 0.9917, 0.9968, 1.0048,\n        0.9908, 0.9994, 1.0018, 1.0020, 1.0231, 0.9839, 1.0186, 1.0049, 0.9982,\n        1.0100, 0.9847, 0.9953, 1.0037, 0.9911, 1.0175, 1.0198, 1.0108, 1.0090,\n        0.9889, 0.9816, 1.0318, 0.9971, 0.9907, 1.0164, 0.9965, 0.9981, 1.0004,\n        1.0001, 1.0108, 0.9930, 0.9932, 1.0079, 1.0006, 1.0045, 1.0023, 1.0022,\n        1.0142, 0.9948, 1.0257, 0.9815, 1.0018, 1.0009, 1.0079, 0.9911, 1.0090,\n        0.9945, 1.0012, 0.9977, 0.9775, 0.9853, 0.9946, 1.0003, 0.9992, 0.9917,\n        0.9840, 1.0167, 0.9922, 0.9938, 0.9881, 1.0013, 0.9940, 1.0133, 0.9918,\n        1.0155, 0.9970, 1.0196, 0.9941, 1.0069, 0.9861, 0.9962, 1.0092, 1.0035,\n        0.9949, 1.0214, 1.0165, 0.9994, 0.9851, 1.0125, 0.9815, 0.9941, 0.9787,\n        1.0056, 0.9844, 0.9936, 1.0018, 0.9961, 1.0020, 1.0075, 1.0021, 0.9954,\n        0.9933, 1.0043, 1.0153, 1.0033, 0.9943, 0.9891, 1.0065, 1.0037, 0.9940,\n        1.0057, 0.9983, 1.0012, 0.9979, 1.0000, 0.9887, 0.9838, 1.0203, 1.0021,\n        1.0159, 0.9961, 0.9985, 1.0016, 0.9937, 0.9993, 0.9977, 0.9910, 1.0070,\n        0.9993, 1.0141, 1.0193, 0.9878, 1.0231, 1.0031, 1.0012, 1.0009, 1.0095,\n        1.0137, 1.0051, 0.9999, 0.9932, 1.0223, 1.0090, 1.0142, 0.9915, 1.0066,\n        1.0149, 1.0109, 0.9975, 1.0002, 0.9985, 0.9895, 0.9979, 1.0167, 1.0077,\n        1.0103, 1.0098, 0.9990, 1.0041, 1.0096, 1.0044, 1.0134, 0.9915, 0.9912,\n        1.0125, 0.9958, 1.0199, 1.0317, 1.0157, 0.9967, 1.0190, 0.9915, 0.9854,\n        1.0038, 0.9867, 0.9864, 0.9801, 0.9812, 0.9927, 0.9940, 0.9971, 0.9998,\n        1.0113, 1.0153, 1.0135, 0.9977, 0.9826, 1.0073, 0.9982, 1.0112, 0.9960,\n        0.9907, 1.0207, 1.0148, 0.9964, 0.9967, 0.9991, 0.9931, 1.0044, 1.0533,\n        1.0152, 1.0081, 1.0032, 1.0131, 0.9919, 0.9950, 0.9885, 1.0023, 1.0078,\n        0.9977, 0.9817, 1.0041, 0.9948, 0.9931, 1.0027, 1.0195, 0.9964, 1.0073,\n        1.0071, 1.0334, 1.0182, 0.9907, 1.0195, 0.9847, 1.0180, 1.0009, 0.9914,\n        1.0244, 1.0107, 1.0400, 1.0045, 0.9846, 1.0057, 0.9931, 1.0038, 0.9920,\n        1.0153, 0.9990, 0.9952, 1.0085, 1.0009, 0.9850, 1.0390, 0.9895, 1.0331,\n        1.0062, 1.0032, 0.9972, 1.0052, 0.9944, 0.9908, 1.0077, 1.0124, 1.0037,\n        0.9946, 1.0051, 1.0080, 1.0114, 1.0023, 0.9947, 0.9959, 1.0012, 1.0421,\n        0.9972, 1.0060, 1.0191, 1.0116, 0.9991, 0.9982, 0.9923, 1.0242, 1.0227,\n        1.0409, 0.9887, 0.9992, 1.0152, 1.0045, 0.9757, 1.0000, 1.0089])", "transformer_encoder.layers.1.norm1.bias": "tensor([ 1.1663e-03,  1.8219e-03,  2.3650e-03,  1.6075e-02,  1.0123e-02,\n        -3.4701e-02,  5.3070e-03,  2.7329e-03, -1.9662e-02,  5.6716e-03,\n         2.4926e-03, -8.5208e-03, -2.8172e-02, -2.7667e-03,  4.7631e-03,\n         1.8646e-03,  3.6521e-03, -1.6310e-03,  1.8276e-03, -8.9748e-04,\n         1.1470e-02,  2.2902e-03,  1.2070e-02, -8.7780e-04, -2.6544e-02,\n         6.3317e-03, -3.0310e-03, -7.9652e-04, -1.5481e-04, -1.1466e-02,\n         3.9564e-03, -4.3203e-03,  2.8363e-03,  6.2308e-05, -8.2806e-04,\n         1.6566e-02,  2.3029e-02, -1.9480e-02, -3.9423e-03, -6.6083e-03,\n         7.3082e-03, -3.9626e-04,  9.0471e-05,  7.4826e-03,  8.1826e-03,\n         6.0566e-03,  3.7174e-03, -7.1185e-05, -1.2727e-03, -5.0914e-03,\n         2.6716e-03,  3.7570e-03, -4.0065e-03,  2.3915e-03, -4.1289e-03,\n         1.1143e-02,  3.6982e-03, -3.4818e-03, -3.9763e-03, -5.8015e-03,\n         2.4775e-03, -7.2711e-03,  7.9883e-04, -3.2534e-03,  1.1974e-03,\n         2.2782e-03, -1.9370e-02, -3.5801e-03,  5.8294e-04, -4.3803e-03,\n        -2.6394e-03,  7.0802e-03, -8.2214e-03,  7.2107e-03,  3.0331e-02,\n        -2.7617e-03, -9.8972e-03, -6.4466e-04,  3.0383e-03, -7.7336e-03,\n        -1.6741e-03, -4.9163e-03,  1.1622e-02, -8.1645e-03, -8.4196e-03,\n        -4.6200e-03, -8.1480e-03, -4.6368e-03, -1.1400e-03, -2.0967e-03,\n         8.5053e-03, -2.1267e-04,  2.6855e-03,  3.1685e-03,  4.1689e-03,\n        -2.0448e-02, -7.3156e-03, -3.3806e-05, -1.3665e-03,  5.7771e-03,\n         5.7836e-03,  2.1005e-04, -5.1068e-03, -1.4127e-02,  6.4021e-03,\n         4.4955e-03, -6.6739e-05, -2.4613e-02, -4.3613e-03,  5.2074e-03,\n        -3.1045e-03,  4.1962e-03, -7.8715e-03,  6.2772e-03, -4.2030e-04,\n         1.0733e-02,  2.2853e-02, -1.9363e-04, -1.2878e-03,  2.3984e-02,\n         1.5319e-03,  3.1774e-02,  5.6495e-03, -4.3941e-03,  1.2370e-02,\n         7.5284e-03,  3.2044e-03, -4.7286e-04,  2.1727e-02,  4.5542e-03,\n         3.0849e-03,  1.1970e-03,  7.1924e-03,  1.1710e-03,  2.3471e-03,\n         7.1743e-03,  7.2979e-03, -1.4640e-03, -5.0822e-03,  3.0870e-02,\n         1.5988e-02, -8.4192e-03, -1.7207e-03,  1.2568e-03,  1.0973e-02,\n        -7.9029e-04, -6.0257e-03,  7.1416e-03,  4.0047e-03, -1.5056e-02,\n        -2.5032e-03, -6.5012e-03, -3.6976e-03,  5.5842e-03, -5.0553e-03,\n        -7.4610e-03,  2.7057e-03,  5.2407e-04, -5.4732e-05,  1.4624e-03,\n         8.2384e-04,  1.0939e-02, -1.3065e-03, -6.7110e-03,  2.7405e-03,\n         4.7937e-03, -1.0972e-04, -1.1110e-03, -6.4770e-03, -1.9431e-04,\n        -1.5994e-02,  6.7939e-03, -2.6656e-03, -2.9384e-03, -6.5371e-04,\n         3.8237e-03,  4.1754e-03,  1.7431e-02, -5.9011e-03,  3.4169e-03,\n        -3.4492e-03, -2.4260e-03, -2.3441e-03, -5.2698e-03, -7.6205e-03,\n        -9.9668e-03, -7.3191e-04,  6.3431e-03, -3.1227e-02,  1.3715e-02,\n        -1.3679e-03, -3.1717e-02, -6.5543e-03, -1.1138e-02, -1.0212e-02,\n        -1.0839e-02,  5.2731e-03,  2.4294e-02, -7.4750e-03, -1.5149e-03,\n         1.8352e-02,  4.5622e-03, -4.1680e-02, -4.9083e-03,  1.1881e-02,\n         8.2443e-03,  6.6355e-03,  4.5941e-02,  4.5962e-03,  4.6975e-03,\n        -2.1840e-03, -2.8166e-03, -7.7337e-04,  1.5268e-02, -4.2675e-03,\n         1.5515e-03, -2.1051e-03,  1.0349e-02, -5.7640e-03,  1.3942e-02,\n         9.2390e-05,  7.1232e-04,  8.7285e-03, -1.8037e-03, -7.8064e-04,\n        -6.5574e-03,  9.4091e-03,  2.8830e-02,  1.6853e-03, -5.7680e-03,\n         9.0526e-03, -7.3221e-03, -3.1651e-03,  4.7418e-03,  1.9080e-03,\n        -1.5006e-03,  2.4449e-03,  9.4942e-03, -2.9050e-03,  5.9391e-04,\n         4.4310e-03,  2.5512e-03,  3.0751e-03,  1.2210e-02,  1.4875e-02,\n         5.3349e-03,  4.6112e-03,  2.2762e-02,  6.3273e-03,  4.5426e-02,\n         1.9143e-04, -5.6839e-03,  2.9196e-02,  9.8093e-03,  4.7826e-03,\n         2.5452e-03, -6.6134e-03,  1.4704e-02, -1.3896e-02, -2.0353e-03,\n         2.0834e-02,  4.2287e-03,  5.8212e-03,  5.0327e-03,  6.1215e-03,\n         1.0579e-04, -1.6469e-03,  2.7408e-04,  3.5103e-03,  3.3759e-03,\n        -1.7462e-03,  1.0673e-03, -1.9416e-03, -1.5678e-03,  2.6762e-03,\n        -7.5837e-03, -4.2519e-04, -9.8484e-03,  3.7795e-03,  1.8506e-03,\n        -5.3053e-03, -2.1278e-02,  6.8156e-04, -6.9453e-03,  1.6490e-03,\n        -3.1014e-03,  4.9731e-03,  2.0320e-02,  6.8960e-03,  4.8786e-03,\n        -1.0853e-02,  5.0291e-03, -4.2552e-03, -5.4435e-04,  7.1974e-03,\n        -6.4029e-03,  5.5713e-03, -2.6951e-03, -4.1002e-03,  1.3730e-02,\n         1.6043e-04,  1.1719e-02,  5.6759e-03, -1.9136e-02,  1.8113e-03,\n         2.8114e-03,  2.7904e-03, -1.1126e-02, -4.5189e-03, -2.1186e-03,\n         4.3461e-03, -1.6892e-02,  4.0942e-03, -5.4720e-03, -5.3976e-03,\n         4.3649e-03,  2.5811e-03,  4.4246e-03, -9.2819e-03,  1.5501e-02,\n         2.8373e-03, -1.1927e-03, -1.1817e-02, -3.1278e-03,  6.0586e-03,\n        -3.1538e-03, -5.2300e-04, -1.6213e-02,  1.4666e-03, -3.0442e-03,\n         8.6531e-03,  2.4416e-03, -1.4417e-02, -8.6835e-03, -6.4213e-03,\n         6.8217e-03, -1.1092e-02, -4.1589e-03,  2.1640e-03, -4.8730e-03,\n        -2.1997e-03,  4.6490e-03, -2.0709e-03, -1.0043e-02,  1.0430e-03,\n         1.2409e-02,  3.2104e-03,  8.1845e-03,  2.4156e-03, -1.7095e-03,\n        -1.1164e-02,  2.2425e-02,  4.7734e-03,  4.5746e-03,  2.4407e-03,\n         1.1446e-02,  5.1745e-03,  6.7641e-03, -3.1940e-03, -8.7712e-04,\n        -6.2235e-03,  3.7343e-03,  2.9986e-04,  2.6033e-03, -1.1261e-02,\n        -1.1176e-02,  4.7433e-03,  1.2826e-03,  4.5349e-03,  2.2835e-02,\n         8.4718e-03,  1.6044e-03,  2.3177e-03,  3.9549e-03, -8.7465e-03,\n         2.5471e-03,  4.4982e-03, -1.3358e-03,  1.3306e-02,  8.7552e-03,\n         1.1673e-03, -4.7010e-03,  4.3398e-04, -7.1373e-03, -7.5210e-04,\n        -1.9390e-02, -4.1870e-04,  7.3579e-03,  2.1903e-03, -8.9439e-03,\n         9.7482e-03,  2.2323e-03,  2.6612e-03, -2.4526e-03,  5.6598e-03,\n         2.8690e-03,  6.8443e-03, -1.4963e-02, -1.1264e-02, -4.5628e-03,\n        -8.4764e-03,  5.1501e-04, -9.4207e-03,  7.4003e-03, -1.5963e-02,\n         1.9448e-04,  3.5906e-03,  1.0275e-02, -3.4963e-03, -1.1896e-02,\n         3.6217e-03, -3.3010e-03, -2.6237e-04, -3.3483e-03,  1.4721e-02,\n        -2.5797e-02, -3.6324e-02,  2.6634e-03,  8.6371e-03,  3.1562e-02,\n        -8.8793e-03,  8.6940e-03,  1.6028e-03, -6.1350e-04, -4.0052e-02,\n         1.3970e-02, -1.3762e-04, -5.1537e-03,  1.2271e-02, -3.4556e-03,\n         4.7081e-04, -5.3051e-02,  2.8446e-02, -2.9878e-03, -3.8627e-03,\n         1.0845e-03,  6.6400e-03,  4.4613e-03, -9.2397e-03,  8.5372e-03,\n        -5.2870e-03,  7.1726e-03,  6.8106e-03, -5.8432e-04,  2.1906e-03,\n        -9.4017e-03, -6.7083e-03, -2.6078e-02, -6.1830e-03, -4.4418e-03,\n         9.3278e-05, -1.8991e-03, -3.9263e-03,  2.2427e-02, -1.1832e-02,\n         3.3769e-03,  9.1773e-04, -3.2636e-03,  1.6301e-02, -1.4928e-02,\n         6.1284e-03, -4.1928e-02, -1.2910e-02, -1.4627e-03, -4.2986e-04,\n        -6.9917e-03, -6.4391e-04,  6.5991e-04,  8.6691e-03,  2.0412e-03,\n        -1.0353e-03, -9.2049e-03, -1.7595e-03, -2.7801e-03,  2.4462e-02,\n         6.0160e-03, -1.7486e-02,  4.6292e-03, -1.6496e-04, -6.2160e-03,\n        -1.9914e-02,  1.3352e-03, -2.0827e-03, -3.7924e-03,  4.7049e-03,\n         9.4629e-03,  1.0489e-02, -2.8728e-04,  1.5270e-02, -1.5171e-03,\n         2.5309e-03,  3.7568e-03, -4.1898e-03,  8.3586e-04, -4.5477e-02,\n         5.3818e-03,  4.5112e-03,  4.9974e-03, -2.5348e-02,  3.2224e-03,\n        -9.5818e-04,  9.5931e-03, -5.5945e-03, -1.6722e-02,  1.8578e-02,\n        -3.7556e-03, -4.2049e-04, -5.2263e-03,  2.9209e-03, -1.3195e-03,\n        -4.8681e-05,  2.3560e-03])", "transformer_encoder.layers.1.norm2.weight": "tensor([0.9746, 0.9837, 0.9828, 0.9919, 0.9952, 0.9770, 0.9808, 0.9818, 0.9695,\n        0.9850, 0.9728, 0.9769, 0.9779, 0.9780, 0.9963, 0.9853, 0.9840, 0.9887,\n        0.9558, 0.9781, 0.9759, 0.9912, 0.9739, 0.9693, 0.9843, 0.9874, 0.9895,\n        0.9900, 0.9832, 0.9816, 0.9798, 0.9597, 0.9936, 0.9825, 0.9881, 0.9741,\n        0.9805, 0.9782, 0.9641, 0.9947, 0.9929, 0.9872, 0.9879, 0.9826, 0.9873,\n        0.9744, 0.9842, 0.9947, 0.9896, 0.9851, 0.9882, 0.9793, 0.9846, 0.9741,\n        0.9729, 0.9866, 0.9875, 0.9777, 0.9856, 0.9732, 0.9848, 0.9808, 0.9754,\n        0.9832, 0.9929, 0.9899, 0.9788, 0.9822, 0.9940, 0.9843, 0.9711, 0.9712,\n        0.9716, 0.9710, 1.0110, 0.9922, 0.9891, 0.9969, 0.9914, 0.9780, 0.9730,\n        0.9826, 0.9791, 0.9762, 0.9731, 0.9598, 0.9780, 0.9760, 0.9861, 0.9792,\n        0.9751, 0.9888, 0.9719, 0.9945, 0.9762, 0.9632, 0.9777, 0.9908, 0.9866,\n        0.9864, 0.9860, 1.0010, 0.9890, 0.9829, 0.9683, 0.9579, 0.9786, 0.9629,\n        0.9711, 0.9688, 0.9821, 0.9448, 0.9816, 0.9858, 0.9654, 0.9730, 0.9810,\n        0.9731, 0.9879, 0.9874, 0.9842, 0.9829, 0.9652, 0.9872, 0.9862, 0.9873,\n        0.9805, 0.9756, 1.0106, 0.9955, 0.9764, 0.9802, 0.9841, 0.9803, 0.9942,\n        0.9959, 0.9791, 0.9825, 0.9899, 0.9607, 0.9656, 0.9765, 0.9858, 1.0050,\n        0.9886, 0.9710, 0.9767, 0.9736, 0.9763, 0.9708, 0.9549, 0.9849, 0.9746,\n        0.9771, 1.0009, 0.9754, 0.9858, 0.9934, 0.9804, 0.9891, 0.9849, 0.9981,\n        0.9886, 0.9871, 0.9747, 0.9840, 0.9883, 0.9902, 0.9741, 0.9776, 0.9903,\n        0.9738, 0.9814, 0.9737, 0.9818, 0.9704, 0.9745, 0.9893, 0.9802, 0.9924,\n        0.9760, 0.9827, 0.9824, 0.9776, 0.9725, 0.9823, 0.9881, 0.9669, 0.9688,\n        0.9850, 0.9890, 0.9808, 0.9821, 0.9674, 0.9801, 0.9829, 1.0052, 0.9627,\n        0.9958, 0.9846, 0.9809, 0.9814, 0.9662, 0.9891, 0.9924, 0.9768, 0.9720,\n        0.9652, 0.9836, 0.9900, 0.9844, 0.9865, 0.9937, 0.9778, 0.9702, 0.9717,\n        0.9869, 0.9767, 0.9792, 0.9681, 0.9809, 0.9771, 0.9939, 0.9826, 0.9870,\n        0.9704, 0.9840, 0.9727, 0.9937, 0.9732, 0.9751, 0.9778, 0.9792, 0.9762,\n        1.0091, 0.9786, 0.9886, 0.9888, 0.9800, 0.9900, 0.9801, 0.9778, 0.9927,\n        0.9731, 0.9721, 1.0002, 0.9876, 0.9726, 0.9625, 0.9917, 0.9821, 0.9917,\n        0.9715, 0.9791, 0.9696, 0.9835, 0.9823, 0.9730, 0.9929, 0.9922, 0.9844,\n        0.9569, 0.9658, 0.9928, 0.9787, 0.9772, 1.0095, 0.9881, 0.9852, 0.9755,\n        0.9895, 0.9910, 0.9782, 0.9838, 0.9878, 0.9804, 0.9903, 0.9732, 0.9866,\n        0.9712, 0.9882, 0.9753, 0.9703, 0.9863, 0.9984, 0.9839, 0.9805, 0.9815,\n        0.9812, 0.9938, 0.9844, 0.9626, 0.9790, 0.9762, 0.9889, 0.9944, 0.9835,\n        0.9692, 0.9871, 0.9797, 0.9721, 0.9666, 0.9917, 0.9817, 0.9958, 0.9814,\n        0.9890, 0.9889, 0.9894, 0.9818, 0.9838, 0.9646, 0.9909, 0.9799, 0.9879,\n        0.9827, 0.9824, 0.9819, 0.9878, 0.9864, 1.0028, 0.9714, 0.9820, 0.9694,\n        0.9810, 0.9745, 0.9726, 0.9982, 0.9927, 0.9905, 0.9955, 0.9934, 0.9773,\n        0.9796, 0.9918, 1.0013, 1.0010, 0.9809, 0.9774, 0.9952, 0.9884, 0.9848,\n        0.9908, 0.9801, 0.9785, 0.9807, 0.9973, 0.9713, 0.9727, 0.9950, 0.9913,\n        0.9861, 0.9842, 0.9889, 0.9839, 0.9841, 0.9865, 0.9882, 0.9731, 0.9895,\n        0.9889, 0.9969, 0.9877, 0.9722, 0.9991, 0.9920, 0.9948, 1.0001, 1.0026,\n        0.9893, 0.9942, 0.9877, 0.9789, 1.0135, 0.9922, 0.9829, 0.9742, 0.9845,\n        0.9854, 0.9888, 0.9882, 0.9633, 0.9900, 0.9714, 0.9870, 0.9711, 0.9963,\n        0.9823, 0.9686, 0.9967, 0.9775, 1.0000, 0.9879, 0.9558, 0.9771, 0.9780,\n        0.9687, 0.9817, 1.0001, 0.9993, 0.9904, 0.9852, 0.9943, 0.9697, 0.9591,\n        0.9792, 0.9659, 0.9687, 0.9590, 0.9631, 0.9846, 0.9845, 0.9867, 0.9861,\n        0.9912, 0.9814, 0.9790, 0.9942, 0.9760, 0.9716, 0.9785, 0.9783, 0.9767,\n        0.9812, 0.9794, 0.9840, 0.9883, 0.9806, 0.9993, 0.9756, 0.9877, 0.9657,\n        0.9920, 0.9854, 0.9808, 0.9927, 0.9683, 0.9876, 0.9759, 0.9875, 0.9839,\n        0.9812, 0.9608, 0.9853, 0.9864, 0.9858, 0.9841, 0.9810, 0.9849, 0.9897,\n        0.9787, 0.9902, 0.9890, 0.9548, 0.9735, 0.9743, 1.0050, 1.0022, 0.9742,\n        0.9746, 0.9791, 0.9916, 0.9792, 0.9700, 0.9893, 0.9787, 0.9898, 0.9703,\n        0.9880, 0.9919, 0.9856, 0.9946, 0.9893, 0.9757, 0.9667, 0.9797, 0.9748,\n        0.9746, 0.9746, 0.9850, 0.9966, 0.9819, 0.9793, 0.9902, 0.9884, 0.9831,\n        0.9806, 0.9908, 0.9819, 1.0018, 0.9884, 0.9830, 0.9864, 0.9983, 0.9849,\n        0.9934, 0.9800, 0.9862, 0.9837, 0.9889, 0.9864, 0.9769, 0.9817, 0.9818,\n        0.9728, 0.9840, 0.9891, 0.9816, 0.9898, 0.9640, 0.9784, 0.9906])", "transformer_encoder.layers.1.norm2.bias": "tensor([ 2.2810e-02, -8.0372e-04,  2.7946e-03, -2.5784e-04,  8.3528e-03,\n         1.6056e-02,  9.5511e-03, -7.2868e-03, -2.0931e-02,  1.4640e-03,\n         4.4389e-03, -3.9235e-03,  4.8629e-03,  2.1901e-03,  9.2708e-04,\n        -7.9709e-03, -5.3380e-03, -6.2190e-03,  4.1642e-03, -2.3418e-03,\n        -3.2423e-03,  2.4344e-03,  1.0810e-02,  1.7661e-03, -2.4239e-03,\n         1.1373e-02, -1.0441e-03, -2.0352e-03,  4.7762e-03, -2.0503e-03,\n        -8.2906e-03, -1.8805e-02,  5.8462e-03,  5.1033e-03, -7.4941e-03,\n         7.6425e-03, -5.9844e-04,  1.7293e-02,  1.0941e-02,  1.9532e-04,\n         1.0463e-02, -2.6133e-03,  1.7112e-03,  9.2182e-03,  4.9709e-03,\n         3.5829e-03, -6.2811e-03,  9.3118e-05,  2.0356e-03, -2.6913e-03,\n         1.1345e-03, -4.0667e-03, -2.0817e-03, -6.1410e-03,  8.3974e-03,\n         1.9313e-04,  4.0595e-03, -4.7690e-03, -1.5621e-03, -7.0397e-03,\n         4.6993e-03, -1.1857e-02, -5.8177e-03, -6.6773e-03,  6.1473e-04,\n        -3.8574e-03,  3.8752e-03, -1.5248e-02, -2.5090e-03, -1.5559e-02,\n        -3.9828e-03, -1.0392e-02, -6.1635e-03,  2.4612e-02,  2.3515e-02,\n         3.7091e-03, -2.1357e-02, -7.6958e-04,  8.7324e-03,  1.1875e-02,\n        -5.6386e-04, -9.1243e-03,  9.2336e-03, -6.4408e-03, -1.6226e-03,\n        -5.1850e-03,  9.9828e-03, -1.7976e-03,  4.4191e-03,  9.0645e-03,\n        -9.7487e-03, -2.9047e-03, -4.2962e-03, -3.5941e-03,  4.3736e-03,\n         8.7803e-03, -3.0471e-03, -6.7958e-03,  2.7128e-03,  1.0881e-03,\n         3.5878e-03,  1.4654e-04, -5.0489e-03, -4.2282e-03,  1.3236e-04,\n         4.1603e-04,  1.0967e-03,  1.2999e-02,  7.9617e-03, -2.1789e-03,\n         4.9593e-03, -4.4796e-03,  1.0442e-02,  2.2572e-03, -7.0868e-03,\n         2.4834e-03,  7.7884e-03,  2.9270e-04, -1.7113e-03,  1.6373e-02,\n         3.8126e-03,  2.2983e-03,  8.4135e-03, -5.3779e-03,  7.5108e-03,\n         1.4369e-03,  4.3637e-03,  1.5309e-02,  1.6667e-02,  3.2911e-03,\n         4.8859e-03,  1.6083e-03,  1.6128e-03, -7.3005e-03,  9.1655e-03,\n        -5.1327e-04, -2.3715e-03, -7.7332e-03, -2.4825e-03, -2.3517e-02,\n        -5.4605e-03, -1.3014e-02, -4.0867e-03, -7.6246e-05,  6.9417e-03,\n         4.4259e-03, -3.4777e-03,  9.7004e-03, -1.9492e-02, -3.0532e-04,\n         1.4823e-03, -1.1803e-02,  2.7388e-03, -2.3285e-03, -4.5141e-03,\n         6.2668e-04,  6.6865e-03, -3.3185e-03, -1.9546e-02, -1.1307e-02,\n        -4.5227e-03,  5.0242e-03, -2.3980e-03, -7.6927e-04, -1.0847e-04,\n         6.3533e-03, -3.8188e-03, -1.2956e-03,  3.2404e-04,  4.1928e-03,\n        -1.0372e-02, -4.8771e-03, -5.1681e-03,  2.9242e-03, -2.2569e-02,\n         7.3331e-04,  4.3814e-04,  1.2812e-02,  2.4112e-03,  2.6004e-03,\n        -7.1072e-03, -4.8525e-03,  2.2074e-03, -3.8589e-03, -1.3809e-03,\n        -9.8386e-03,  1.6118e-03,  5.0786e-03,  6.8830e-03,  1.6948e-02,\n        -2.4367e-03,  8.1136e-04, -1.4658e-02,  1.7366e-02, -1.6156e-04,\n        -4.2503e-03,  3.2096e-03, -1.0624e-02, -6.3937e-03, -3.2826e-03,\n        -2.1074e-03,  6.5311e-03,  1.1869e-02, -1.1108e-02, -2.5495e-04,\n         2.1496e-03, -1.0815e-03, -1.3040e-02,  1.3438e-02,  7.6684e-03,\n         1.0389e-03, -4.4887e-03,  2.4267e-03, -1.5782e-02,  3.3906e-03,\n         2.0155e-03,  5.2653e-04,  1.4823e-03,  5.4107e-03,  1.9250e-02,\n        -5.7600e-04,  3.3538e-03,  1.3888e-02,  1.0580e-03, -3.6843e-03,\n         8.1672e-03,  9.2304e-05, -1.9107e-02,  1.6503e-03, -2.5699e-03,\n        -2.0547e-02, -9.0613e-03, -9.6872e-03,  4.1211e-03,  5.2165e-03,\n        -4.8493e-04, -1.3327e-03,  1.3233e-02, -2.4316e-02, -2.0780e-03,\n         5.0321e-03,  6.7333e-04, -5.5651e-03,  6.7604e-03, -2.6330e-03,\n         1.9742e-03,  7.8498e-03, -1.3094e-02, -6.4858e-03,  1.2527e-02,\n        -6.1384e-03, -3.1974e-03, -1.5528e-02, -3.4876e-04,  1.6899e-02,\n         1.5853e-03, -1.6674e-03, -1.6256e-02, -3.0923e-02,  1.6371e-04,\n         3.8172e-03, -2.0358e-03,  4.1120e-03,  1.2181e-02,  1.4474e-02,\n        -1.6040e-03, -5.3692e-03,  1.7761e-03, -1.8996e-03, -1.2343e-02,\n        -2.8285e-03,  5.6422e-03, -3.4937e-03, -3.7325e-03,  2.0405e-04,\n        -1.5422e-03,  5.9063e-05,  1.2372e-03, -1.8249e-03, -2.5260e-02,\n        -4.2604e-03,  3.9641e-03,  4.3003e-03, -5.8360e-04,  2.8349e-03,\n        -1.9623e-03,  3.0090e-03, -5.1009e-03,  7.8966e-03,  9.3888e-04,\n        -7.6158e-03,  4.0001e-03, -9.2681e-03,  7.2731e-03,  6.7856e-03,\n        -1.2343e-02,  9.3934e-03,  9.3388e-03, -6.9603e-03,  1.3548e-02,\n        -3.4102e-03,  2.3456e-04,  1.0133e-03, -1.0934e-02,  4.0042e-03,\n        -1.2630e-03,  5.3310e-04, -9.7737e-03, -2.0242e-03, -9.0836e-04,\n        -6.7648e-04,  2.6482e-03,  5.1784e-03, -1.2608e-02, -5.5900e-04,\n         5.5093e-03, -9.8427e-03, -2.1041e-02, -9.3901e-03,  1.5171e-02,\n         1.8305e-03,  6.4264e-04, -3.9588e-03, -8.3855e-03, -3.2716e-04,\n        -3.9818e-03, -9.9177e-04, -1.0958e-02,  2.8146e-03, -4.1876e-04,\n         8.7840e-03,  8.5692e-04, -1.1526e-02, -2.2682e-03, -7.7006e-03,\n         4.2788e-03, -1.0148e-02, -2.8629e-03,  9.2828e-04, -1.2300e-03,\n        -1.1058e-03,  4.0531e-03,  4.6995e-03,  1.1752e-02, -5.1899e-03,\n         1.4249e-02,  1.7047e-03,  8.6926e-03,  2.2059e-03,  1.9526e-03,\n        -1.1729e-02,  1.2582e-02,  1.3423e-02,  1.1295e-03, -1.0432e-02,\n         9.0869e-03,  7.4552e-03,  6.2401e-03,  4.0777e-03, -1.4439e-02,\n        -7.6182e-03,  5.6609e-03, -1.2992e-03, -2.9943e-03, -3.3245e-03,\n        -1.1759e-02,  1.2327e-02,  3.4919e-04, -2.0082e-04,  1.3320e-02,\n         6.1132e-03,  7.5437e-04,  6.8896e-04,  1.5965e-03, -1.1647e-02,\n        -1.2874e-02, -2.1112e-03,  7.9495e-03,  8.4961e-03,  1.4227e-02,\n         2.1231e-03, -4.6292e-03,  3.4191e-03, -6.0600e-03, -2.7745e-03,\n         9.0165e-03,  4.4842e-04, -9.9113e-03,  2.4115e-02, -4.6155e-03,\n        -5.5412e-03, -1.6288e-03,  1.1819e-02, -2.7644e-02, -7.2565e-04,\n         3.0687e-03,  3.5469e-03, -1.9304e-03, -9.5652e-03, -4.1414e-03,\n        -1.8318e-03, -1.4579e-03, -7.0058e-03,  7.2213e-03, -9.5395e-03,\n        -1.1548e-03, -1.0980e-03,  2.5208e-03, -3.3527e-03,  1.5945e-02,\n        -1.2298e-03, -2.6515e-03, -7.1256e-03,  2.3641e-03,  1.3600e-02,\n         9.9131e-03, -3.1159e-03,  1.5925e-03,  2.9361e-03,  7.6815e-04,\n         4.2951e-03,  1.9403e-03,  6.0606e-03, -1.3278e-03,  3.7212e-03,\n        -5.1475e-03,  3.8670e-03, -8.4514e-03,  8.0135e-03,  1.8806e-03,\n         1.3739e-03,  1.4258e-02,  6.9650e-03,  4.2787e-03, -1.2761e-02,\n         3.7541e-03, -1.2309e-03,  3.7016e-03,  2.6609e-03,  8.3059e-03,\n         9.7278e-03, -2.5006e-03,  1.3611e-03,  1.2844e-03,  8.4657e-04,\n        -8.7361e-03, -9.4462e-03, -8.1109e-03, -4.7678e-04, -2.1433e-03,\n        -5.8576e-03,  1.9902e-02,  8.3706e-04, -1.5662e-02,  1.7322e-02,\n        -2.9227e-03, -4.8483e-03, -9.7367e-04,  1.1866e-02,  1.0952e-02,\n        -1.4439e-02, -7.4211e-03, -2.1363e-03,  1.7265e-03,  6.5879e-03,\n        -4.0602e-03,  5.3975e-03,  8.2291e-03, -5.1881e-03, -1.7723e-03,\n        -4.8917e-04, -1.3181e-02,  2.1116e-03, -4.0563e-03, -3.0690e-02,\n         1.0403e-02,  1.5259e-02, -6.9192e-03, -9.2813e-03, -3.1801e-03,\n        -1.5922e-02, -7.7454e-04,  9.0413e-04, -9.5942e-04, -9.7992e-03,\n        -3.2103e-03,  2.2559e-03, -2.0583e-03, -1.3212e-03, -2.9057e-03,\n        -1.9202e-03,  1.9998e-03, -9.6844e-05,  3.5140e-03,  1.9000e-03,\n         5.1638e-03,  1.6302e-02, -5.1984e-03, -1.5437e-02, -7.7202e-05,\n        -1.1921e-04, -2.3976e-03,  1.4485e-02, -4.8038e-03, -2.5703e-02,\n        -3.4293e-03,  8.2224e-04,  1.3698e-02,  6.7758e-03, -5.1128e-03,\n        -1.5657e-03,  6.5806e-03])", "transformer_encoder.layers.2.self_attn.in_proj_weight": "tensor([[ 0.0525, -0.0259, -0.0206,  ...,  0.0481,  0.0006, -0.0250],\n        [-0.0369, -0.0276, -0.0099,  ...,  0.0311, -0.0022, -0.0094],\n        [ 0.0174, -0.0287, -0.0046,  ..., -0.0357,  0.0419,  0.0050],\n        ...,\n        [ 0.0193, -0.0148, -0.0222,  ..., -0.0189,  0.0140,  0.0135],\n        [-0.0505, -0.0291, -0.0931,  ..., -0.0322, -0.0483, -0.0395],\n        [-0.0159,  0.0440, -0.0061,  ...,  0.0029,  0.0268, -0.0317]])", "transformer_encoder.layers.2.self_attn.in_proj_bias": "tensor([-0.0451, -0.0156,  0.0630,  ...,  0.0043,  0.0029,  0.0027])", "transformer_encoder.layers.2.self_attn.out_proj.weight": "tensor([[-0.0133, -0.0144,  0.0003,  ..., -0.0281, -0.0040, -0.0059],\n        [-0.0395, -0.0525,  0.0103,  ...,  0.0152,  0.0405, -0.0398],\n        [ 0.0174, -0.0214, -0.0242,  ...,  0.0100,  0.0227, -0.0284],\n        ...,\n        [-0.0121,  0.0006, -0.0090,  ..., -0.0064, -0.0124,  0.0106],\n        [-0.0070, -0.0008,  0.0164,  ..., -0.0028,  0.0180, -0.0092],\n        [ 0.0258, -0.0083, -0.0061,  ..., -0.0101,  0.0079, -0.0057]])", "transformer_encoder.layers.2.self_attn.out_proj.bias": "tensor([ 2.4126e-02, -6.2709e-03,  4.8380e-03, -1.1296e-03,  2.7013e-03,\n         1.2152e-02,  1.4258e-02, -7.0868e-03, -2.2489e-02,  3.3780e-03,\n         6.6005e-03, -4.1266e-03,  2.3916e-03, -1.0031e-03,  1.3886e-03,\n        -1.0045e-02, -5.3922e-03, -2.1811e-03,  9.5518e-03, -8.5158e-04,\n        -3.1371e-03,  2.8259e-03,  7.4502e-03, -3.3758e-03, -1.2343e-03,\n         7.1869e-03, -5.5854e-04,  5.7619e-04,  5.4416e-03, -2.4409e-04,\n         1.8600e-03, -2.4100e-02,  5.3356e-03,  4.5586e-03, -4.9246e-03,\n         4.7966e-03, -9.6050e-05,  2.0485e-02,  2.8498e-03, -5.0041e-04,\n         4.3332e-03, -2.5356e-04, -4.8708e-03,  8.6724e-03,  4.0859e-03,\n         9.5496e-03, -9.4850e-04,  3.6634e-03, -1.7245e-03, -3.6584e-03,\n         1.7599e-03, -2.2964e-03, -2.1342e-03, -7.0076e-03,  5.9779e-03,\n        -8.7384e-05,  6.8954e-03, -6.6249e-03, -3.1593e-03, -1.0796e-02,\n         1.9729e-03, -5.7219e-03, -5.6242e-03, -3.7385e-03, -2.2068e-03,\n        -3.5887e-03,  7.6290e-03, -1.3507e-02, -1.1384e-03, -1.3924e-02,\n        -6.6627e-03, -1.2318e-02, -7.3494e-03,  1.9255e-02,  1.6404e-02,\n         5.3250e-03, -1.3451e-02, -1.3003e-03,  9.3259e-03,  3.9833e-03,\n        -2.7341e-03, -1.4507e-02,  1.0295e-02, -6.3447e-03, -3.1699e-03,\n        -6.4732e-03,  9.4897e-03, -1.8807e-03, -1.6088e-03,  8.4496e-03,\n        -3.2733e-03,  1.1245e-04, -2.8789e-03, -1.9940e-03,  5.9440e-03,\n         1.8762e-02, -4.6490e-03, -4.9654e-03,  3.6630e-03,  5.1952e-03,\n        -1.7068e-03, -6.3812e-04, -3.8269e-03, -4.3709e-03,  2.9186e-03,\n         1.2361e-03,  4.9289e-03,  1.5817e-02,  6.6919e-03, -6.9230e-03,\n         3.0716e-03, -1.6014e-03,  5.8562e-03,  1.7584e-03, -7.4396e-03,\n         6.7000e-03,  1.0882e-02, -5.0340e-04, -4.1000e-03,  9.1940e-03,\n         8.7837e-03,  2.6149e-03,  1.1527e-02, -5.5015e-03,  5.0671e-03,\n         7.3957e-04,  3.2885e-03,  1.8162e-02,  1.9105e-02, -1.9071e-04,\n         5.5125e-03,  4.4691e-03,  9.5679e-04, -9.9576e-03,  8.3689e-03,\n        -2.6822e-03, -4.0769e-04, -1.3413e-02, -3.2527e-03, -2.4879e-02,\n         6.1803e-04, -1.7601e-02,  1.0839e-03, -7.0156e-03,  4.9663e-03,\n         8.6218e-03, -4.2862e-03,  1.3482e-02, -1.3084e-02,  4.9697e-03,\n         1.6077e-03, -4.7093e-03, -1.1815e-03,  1.6748e-04, -4.2994e-03,\n        -2.8245e-03,  5.5068e-03, -4.0170e-03, -1.3627e-02, -5.1206e-03,\n        -3.5619e-03,  4.7187e-03, -4.0677e-03,  4.6253e-05, -1.9357e-03,\n         4.3430e-03,  3.6300e-05, -3.0155e-03, -2.2381e-03,  2.5365e-03,\n        -9.7292e-03, -1.3511e-03, -1.1573e-03,  2.1729e-04, -2.1815e-02,\n         1.0001e-02,  2.7742e-03,  6.1242e-03,  1.8510e-03,  1.9252e-03,\n        -1.0375e-02, -4.4200e-03,  3.6411e-03, -3.4838e-03, -1.0738e-03,\n        -8.9551e-03, -1.0280e-03,  7.9261e-03,  7.7123e-03,  2.0409e-02,\n        -5.9777e-03,  2.2377e-03, -1.0845e-02,  1.7631e-02, -1.9205e-03,\n        -6.1567e-03,  3.2229e-03, -1.2668e-02, -6.7474e-03, -2.7227e-03,\n        -2.4876e-03,  6.4109e-03,  1.0326e-02, -4.6405e-03, -1.8792e-03,\n         6.3219e-03, -7.8640e-03, -4.4561e-03,  8.0157e-03,  6.4710e-03,\n        -7.4980e-04, -5.7833e-03, -6.5949e-05, -2.1358e-02, -9.1364e-04,\n         1.0611e-03, -2.5086e-03,  3.4341e-03,  6.8737e-03,  1.3130e-02,\n        -1.6365e-03,  6.9473e-05,  1.2946e-02,  1.7995e-03, -6.5306e-04,\n         8.6133e-03, -3.1358e-03, -1.0211e-02,  4.3997e-03, -6.4882e-04,\n        -1.5447e-02, -9.8284e-03, -3.6668e-03,  1.3067e-04,  5.4881e-03,\n        -4.3529e-03,  7.7150e-04,  1.6367e-02, -2.5500e-02, -2.7417e-03,\n         4.2420e-03,  8.2695e-04, -7.8949e-03,  3.4744e-03,  1.7541e-03,\n         5.0562e-03,  1.6211e-02, -1.4697e-02, -4.5048e-03,  1.3630e-02,\n        -2.7744e-03, -3.4699e-03, -1.9447e-02,  1.2085e-03,  1.5685e-02,\n        -2.7228e-03, -1.9290e-03, -1.9336e-02, -2.8909e-02, -1.0008e-03,\n         3.0220e-03, -4.6797e-03,  1.5264e-04,  6.9660e-03,  1.2361e-02,\n        -1.9099e-03, -3.2453e-03,  4.8230e-04, -2.3207e-03, -1.4072e-02,\n        -2.2619e-03,  7.4936e-03, -5.2661e-03, -2.3963e-03, -9.7059e-04,\n        -9.8109e-04,  2.0993e-04, -9.8066e-03,  1.1394e-03, -1.5725e-02,\n        -9.2547e-03,  5.5908e-03,  2.5546e-03,  2.5557e-03,  7.4632e-03,\n         8.6958e-04,  1.8610e-03, -8.2264e-03,  8.2249e-03, -8.4799e-05,\n        -6.5684e-03,  5.8223e-03, -1.4680e-02,  5.0027e-03,  1.2980e-02,\n        -7.1362e-03,  9.5121e-03,  3.3582e-03, -7.3841e-03,  1.4261e-02,\n        -3.6111e-04,  1.0625e-03,  3.8603e-03, -1.4261e-02, -2.6064e-03,\n         1.8381e-03,  2.7471e-03, -1.5148e-02, -3.3578e-03, -6.9401e-04,\n        -1.3934e-03,  2.0108e-03,  9.3094e-03, -8.3109e-03, -1.6904e-03,\n         1.4482e-03, -6.0751e-03, -1.7405e-02, -1.0122e-02,  2.1659e-02,\n         5.7741e-03, -4.0832e-03, -7.9620e-03, -1.6119e-03, -2.8508e-03,\n        -7.5381e-03,  6.4657e-05, -1.2863e-02, -4.2465e-04, -5.9035e-04,\n         9.7888e-03,  1.0786e-03, -1.7592e-02, -1.8579e-03,  1.0626e-04,\n         6.5979e-03, -1.2196e-02, -5.6315e-03, -1.0803e-04, -2.4710e-03,\n        -1.2648e-03,  3.8071e-03,  3.0550e-03,  9.8725e-03, -5.8563e-03,\n         1.2362e-02,  2.3412e-03,  8.7888e-03,  1.5610e-03,  2.7523e-03,\n        -9.0977e-03,  1.4161e-02,  1.1016e-02,  8.7983e-04, -6.2398e-03,\n         1.0912e-02,  3.2870e-03,  6.4274e-03,  8.2462e-03, -1.4700e-02,\n        -4.8602e-03,  7.7863e-03,  2.2700e-03,  5.2828e-03, -4.1224e-03,\n        -7.4427e-03,  1.6176e-02,  2.9044e-03,  5.6637e-03,  6.2337e-03,\n         5.7640e-03, -3.8021e-03,  2.8159e-03,  3.8742e-04, -5.8446e-03,\n        -1.2539e-02, -6.4817e-04,  6.5842e-03,  4.2020e-03,  1.0364e-02,\n        -6.1281e-05, -1.4077e-03,  9.0788e-04, -9.7046e-03, -2.6992e-03,\n         3.2605e-03,  1.9531e-03, -6.5752e-03,  1.9208e-02, -4.6698e-03,\n        -3.9881e-03, -2.6344e-03,  6.4795e-03, -1.4467e-02,  4.1011e-04,\n         1.9991e-03,  5.6451e-03, -2.4537e-03, -1.0282e-02, -6.1243e-03,\n        -6.0251e-04, -1.4486e-03, -5.6105e-03,  4.6087e-03, -7.7482e-04,\n         1.6056e-03, -1.9683e-03,  2.2803e-03, -1.0316e-02,  1.7665e-02,\n         6.8528e-04, -2.7226e-03, -4.4916e-03, -1.3685e-03,  1.2391e-02,\n         9.2266e-03,  1.8922e-03,  2.8746e-03,  3.7745e-03,  3.8941e-03,\n        -2.4730e-04,  1.4886e-03,  1.3039e-03, -4.1429e-03,  1.5639e-03,\n         3.9242e-04,  1.7985e-03, -7.8637e-03,  9.5956e-03, -1.5347e-03,\n        -4.1647e-03,  7.7388e-03,  5.9787e-03,  5.7734e-03, -3.9571e-03,\n         1.2476e-03,  3.2303e-03,  7.4543e-03,  7.5885e-03,  6.5406e-03,\n         3.9536e-03,  1.3202e-03,  7.0753e-03,  3.3532e-03,  2.8141e-03,\n        -9.1514e-03, -6.8941e-03, -1.4222e-02,  1.3053e-03,  6.9248e-04,\n         3.3527e-04,  1.0728e-02,  1.4884e-03, -2.2836e-02,  1.4029e-02,\n        -3.8395e-03, -5.9716e-03, -1.3700e-03,  8.8816e-03,  1.2129e-02,\n        -1.6980e-02, -7.0659e-03, -1.4421e-03, -6.1103e-03,  1.0340e-02,\n        -3.8993e-03,  1.4305e-03,  9.0146e-03, -1.4673e-03,  8.7547e-04,\n         7.0668e-04, -9.6520e-03,  3.0653e-03, -4.1445e-03, -2.6821e-02,\n         7.9116e-03,  1.4129e-02, -5.7660e-03, -1.9790e-03, -2.7662e-03,\n        -2.0747e-02,  7.5811e-03, -1.3971e-03, -1.0217e-03, -7.8232e-03,\n        -1.4508e-03,  4.7096e-03, -4.5760e-04, -6.7546e-04, -2.7949e-03,\n        -2.4471e-03,  2.8309e-03, -5.9608e-03,  6.6030e-03, -6.2228e-03,\n         5.0737e-03,  1.8408e-02, -1.0337e-02, -1.4007e-02,  1.1198e-03,\n        -4.8162e-03,  2.3260e-03,  1.2624e-02, -4.8620e-04, -1.7812e-02,\n        -2.7649e-03, -5.6560e-04,  1.1302e-02,  3.1109e-03, -1.2362e-03,\n         6.5923e-04,  5.4674e-03])", "transformer_encoder.layers.2.linear1.weight": "tensor([[ 0.0048,  0.0092, -0.0341,  ...,  0.0232,  0.0227, -0.0247],\n        [-0.0388,  0.0411, -0.0213,  ..., -0.0362, -0.0203, -0.0176],\n        [-0.0308, -0.0158, -0.0329,  ..., -0.0647,  0.0575,  0.0285],\n        ...,\n        [ 0.0468,  0.0393,  0.0460,  ...,  0.0146, -0.0161,  0.0463],\n        [-0.0272,  0.0393,  0.0051,  ..., -0.0127,  0.0228,  0.0178],\n        [-0.0261, -0.0205,  0.0139,  ..., -0.0174, -0.0282,  0.0485]])", "transformer_encoder.layers.2.linear1.bias": "tensor([ 0.0593,  0.0488, -0.0397,  ..., -0.0082, -0.0002, -0.0245])", "transformer_encoder.layers.2.linear2.weight": "tensor([[ 0.0076,  0.0092, -0.0133,  ..., -0.0014, -0.0012,  0.0104],\n        [ 0.0034, -0.0089, -0.0128,  ..., -0.0061,  0.0056,  0.0084],\n        [ 0.0099,  0.0010, -0.0151,  ..., -0.0137,  0.0013,  0.0022],\n        ...,\n        [-0.0008, -0.0085,  0.0062,  ..., -0.0027,  0.0031, -0.0056],\n        [-0.0020, -0.0065, -0.0087,  ..., -0.0012,  0.0022, -0.0011],\n        [-0.0048, -0.0057,  0.0118,  ..., -0.0167, -0.0017, -0.0011]])", "transformer_encoder.layers.2.linear2.bias": "tensor([ 2.1044e-02, -4.1969e-03,  6.0720e-03,  2.6058e-03,  2.4798e-03,\n        -5.0042e-03,  1.7271e-02, -6.4987e-03, -2.8015e-02,  4.8268e-03,\n         5.4697e-03, -7.5118e-03, -5.9969e-03, -6.4306e-03,  3.3619e-03,\n        -6.6121e-03, -4.3527e-03, -9.0687e-05,  1.1761e-02,  1.2078e-04,\n         8.2153e-03,  4.0098e-03,  5.2854e-03, -5.7989e-03, -1.0647e-02,\n         6.0661e-03,  1.3496e-04,  4.0973e-04,  4.1359e-03, -2.6534e-03,\n         7.7950e-03, -1.9550e-02,  5.9021e-03,  5.4283e-03, -6.7905e-03,\n         6.5860e-03,  5.7862e-03,  6.8174e-03, -2.7481e-03, -1.7235e-03,\n         4.3313e-03, -2.1219e-03, -6.5492e-03,  1.0291e-02,  4.8806e-03,\n         1.4252e-02,  9.2956e-03,  6.0687e-03, -1.5421e-03, -4.0443e-03,\n         1.9051e-03,  4.5791e-03, -3.4931e-03, -5.6054e-03, -1.3527e-03,\n         6.4891e-03,  7.7032e-03, -1.7249e-03, -2.0060e-03, -1.4732e-02,\n         2.5161e-03, -3.9733e-03, -4.3237e-03, -2.4945e-03, -6.1932e-03,\n        -4.4716e-03, -3.5140e-03, -1.2770e-02, -2.0601e-03, -1.3893e-02,\n        -8.7504e-03, -5.0478e-03, -1.2732e-02,  1.6261e-02,  1.4736e-02,\n         4.1078e-03, -1.0191e-02, -7.8144e-06,  7.1686e-03, -3.2858e-03,\n        -3.6015e-03, -1.5935e-02,  1.1008e-02, -9.4430e-03, -2.4788e-03,\n        -8.5431e-03, -5.6338e-04, -4.3679e-03, -8.7488e-04, -2.7335e-03,\n         6.6861e-03, -8.4406e-04, -1.2729e-03,  1.7878e-03,  6.1769e-03,\n         3.3866e-03, -8.2369e-03, -5.8564e-03,  4.5163e-03,  9.8537e-03,\n        -3.2456e-03,  2.7070e-04, -4.0911e-03, -6.5484e-03,  6.7448e-03,\n         4.0491e-03,  6.9217e-03,  9.6387e-03, -8.5603e-04, -2.1668e-03,\n         2.5885e-03, -4.9926e-03, -2.7151e-03,  2.5089e-04, -1.1244e-02,\n         8.6609e-03,  1.8155e-02, -2.7107e-04, -9.4163e-04,  1.6410e-02,\n         8.8151e-03,  9.4863e-03,  1.3991e-02, -4.1434e-03,  1.0963e-02,\n         3.5143e-03,  6.0372e-03,  1.1781e-02,  2.5672e-02, -1.0648e-02,\n         3.1476e-03,  4.5410e-03,  2.6497e-03, -6.8085e-03,  5.1139e-03,\n         