{"learner":{"attributes":{},"feature_names":[],"feature_types":[],"gradient_booster":{"model":{"boosted_rounds":10,"weights":[1.5413074E-1,-4.990697E-2,1.2178528E-1,8.540285E-3,1.644841E-2,-7.533314E-2,8.306282E-2,-1.2779522E-1,5.3210355E-2,-1.24399826E-1,3.0632296E-1,3.2822687E-2,4.0493343E-2,6.805171E-2,1.4959355E-2,1.2554045E-1,-2.2113588E-2,5.5161048E-2,4.393005E-2,4.2237476E-3,-1.562577E-1,-2.5548574E-2,-1.8315364E-1,-2.5038823E-1,-1.060835E-2,8.267511E-2,2.6534362E-2,-9.810937E-3,-1.6549775E-2,2.028571E-2,6.369141E-2,-6.1582424E-2,8.354811E-2,-1.1555701E-3,-7.395615E-2,4.1978125E-2,-2.91615E-1,-2.62873E-1,1.5646364E-1,-2.56604E-2,-2.680833E-3,-2.9552013E-2,-9.957421E-2,1.9784982E-3,-1.2284001E-1,-1.1143467E-1,-1.7440628E-2,3.6404435E-2,-1.329983E-1,-6.648713E-2,-1.2637411E-2,-3.782672E-1,2.4187159E-2,-1.6536448E-2,5.3477544E-2,-3.905556E-2,-1.6404328E-1,3.0508319E-2,-7.7095546E-2,-2.7905677E-2,-2.1941008E-2,-2.5199726E-1,1.0739346E-1,-1.583904E-3,1.5590766E-1,-7.6626256E-2,1.4965009E-2,1.7030443E-1,-2.1265153E-2,-6.8102926E-2,-3.6255732E-2,2.9699069E-2,-8.103721E-3,-1.1687848E-1,1.0479319E-1,-4.5329235E-3,6.404659E-2,-6.0931094E-2,-2.6052794E-1,5.1881585E-2,2.4416149E-2,-1.4265236E-2,3.2097608E-2,3.003978E-2,-3.2263014E-1,2.07255E-4,-2.4590924E-2,5.2169957E-3,-2.9934613E-2,2.6233196E-2,-3.7734646E-1,-8.351368E-2,-2.8868461E-2,-3.8719662E-3,2.3908372E-1,8.360252E-3,1.4319044E-1,-1.5620504E-2,-3.8062672E-3,1.7126152E-1,1.962373E-2,1.2710328E-1,-1.5751429E-2,-2.5019893E-1,9.6599706E-2,-1.4778565E-1,-9.9950284E-2,-9.079125E-2,1.12782314E-1,6.820514E-3,1.20332204E-1,-3.668528E-1,2.0777963E-1,3.899217E-2,1.2641731E-1,2.8782247E-2,-4.9899455E-2,-1.79358E-1,8.258177E-2,1.2401383E-1,3.576202E-2,6.494151E-2,-2.4732949E-1,3.2279763E-2,-5.7957467E-2,-1.4537811E-1,1.6907831E-3,-6.738271E-2,8.200247E-3,-3.2229492E-1,5.5250995E-2,3.5573184E-2,-3.2873098E-2,1.05493866E-1,1.3067786E-1,1.0740451E-1,-3.202291E-2,-1.538897E-1,4.9327584E-3,5.352216E-2,3.4250982E-2,-1.1076688E-1,-4.575308E-1,-3.4626592E-2,-1.6935956E-2,1.4375445E-1,6.0913518E-2,3.3196914E-1,6.5874755E-2,6.6768505E-2,3.0733954E-2,-1.074828E-2,9.7646266E-2,-4.7346614E-3,-3.0017942E-3,-4.9160976E-2,1.01294436E-1,1.5400633E-1,2.2176461E-2,-8.0882356E-2,3.666811E-2,2.0204018E-1,1.3991559E-1,-4.053723E-1,1.3160199E-2,2.0943768E-3,-2.0990415E-1,-1.0037856E-2,-1.813579E-1,1.0176665E-2,-4.0295254E-2,-3.752169E-2,3.200788E-2,1.0338428E-1,8.983905E-2,-1.7379068E-2,5.447827E-3,1.408472E-1,-3.4078565E-1,-8.238681E-3,6.207625E-2,1.41247725E-2,1.6780089E-3,-6.144047E-2,-5.590579E-2,3.3698488E-2,6.432257E-2,-4.080822E-1,4.8636746E-2,3.6231108E-2,-3.5058275E-2,1.8270656E-2,-9.713039E-2,8.508498E-2,1.5297192E-1,1.9244166E-2,2.4322865E-3,-5.2335757E-1,-2.7156863E-1,-4.2579177E-1,-1.3343691E-2,2.4926608E-2,-4.5888424E-3,4.0236115E-3,-5.355747E-2,-1.16635494E-1,-1.0243855E-1,-4.0294558E-1,2.549447E-2,-4.9397334E-2,3.912763E-1,1.7032949E-3,-1.0346646E-1,7.4485634E-3,2.38691E-2,8.87378E-2,1.1388031E-2,1.6681735E-1,7.119462E-2,4.752879E-2,4.0916065E-3,-4.3012775E-2,4.2617366E-2,-1.801856E-1,2.4291734E-1,-2.9719867E-2,-2.4530672E-1,-2.6851282E-1,2.4059473E-1,-2.7009225E-1,1.5828982E-2,1.7953227E-1,8.50055E-2,5.6341764E-2,2.5621805E-2,1.3819624E-1,1.8192574E-2,-1.3085978E-1,-1.09123485E-2,-5.0196284E-1,3.9232694E-2,3.0250814E-2,4.0829837E-2,-2.2240035E-1,-3.367381E-2,3.4340732E-3,2.1247445E-2,-7.4196436E-2,2.638352E-3,4.1325893E-3,-3.8257763E-2,5.162161E-2,7.3487185E-2,1.9894956E-1,-2.7811477E-1,-2.3291122E-2,-3.255569E-2,2.3579443E-2,5.426429E-2,2.5568608E-2,2.660292E-1,3.2954514E-2,7.7379555E-2,-1.1431405E-2,2.2109918E-1,3.776459E-3,-3.457938E-2,2.104632E-2,2.8091554E-2,1.9693488E-1,1.969582E-2,-7.401315E-3,3.0013072E-1,-2.340532E-1,-8.94858E-2,5.323672E-2,8.142694E-2,2.170066E-2,7.8498214E-2,-7.011326E-2,2.5591525E-1,7.865498E-3,2.0540476E-2,4.9814608E-2,-1.4071253E-1,1.5558337E-1,-4.076843E-3,-9.827041E-2,-4.3635417E-2,6.0170505E-2,3.7481528E-2,4.7528334E-2,-1.662761E-2,-4.7148767E-1,-4.3065485E-2,-1.1188653E-2,-2.6214884E-3,-1.391697E-2,-1.3331012E-1,-2.7507263E-1,-3.712324E-2,1.0442721E-1,3.2011986E-2,-1.2911639E-1,-1.1464106E-2,-1.9871487E-1,-8.633636E-2,-2.3649666E-2,-3.734588E-2,4.293255E-2,3.1282574E-2,8.787832E-2,-1.9297762E-1,4.9774763E-3,-1.3390125E-1,1.6888514E-2,9.210367E-3,1.4510356E-2,1.9324971E-2,-1.2106462E-1,-1.1100608E-1,1.05235375E-1,3.36961E-2,3.1528216E-2,-1.9176096E-2,1.3150715E-2,1.682116E-1,1.8060738E-2,1.5873131E-1,-2.5162803E-2,-2.397908E-3,-8.850546E-2,-1.3885446E-1,-2.9043863E-2,-1.6294076E-1,-2.354534E-1,-4.6001054E-2,-1.0234589E-1,-6.1137583E-3,8.729648E-2,3.1295484E-1,5.043615E-3,-2.349769E-1,1.0500741E-1,1.30342115E-2,3.4694653E-2,7.519138E-2,1.073847E-1,-3.8946977E-1,-3.9067943E-2,-6.250387E-3,3.413618E-2,-7.000511E-2,-2.2625124E-2,1.4069902E-3,1.1397017E-2,-2.1379748E-3,-7.3571876E-2,1.4758946E-1,8.440916E-2,1.2295761E-1,-4.751384E-2,1.2029836E-1,6.655401E-3,-1.8991012E-2,-2.4563488E-2,-1.8782213E-1,3.670193E-1,2.2408253E-1,1.9173454E-2,-6.1773855E-2,9.706409E-2,-4.76001E-2,2.1269934E-1,-1.6635157E-1,8.259831E-3,2.8483097E-2,-2.697641E-1,5.818528E-2,4.605956E-2,1.343392E-1,-1.0943445E-1,9.802563E-2,3.131403E-2,-2.88507E-1,4.382622E-2,-1.3274181E-1,3.9034795E-2,-3.9957665E-2,1.130026E-2,1.381468E-2,-1.2094109E-2,-5.487863E-2,-4.3935705E-2,-2.7605837E-2,-8.622837E-2,-7.045508E-2,2.0644316E-2,9.704927E-2,-1.6216508E-1,2.2837823E-2,9.00552E-3,-1.6464959E-1,-1.7243182E-2,-3.468806E-2,-5.4021347E-2,-2.0061074E-2,4.0821232E-2,1.2983067E-1,5.628763E-2,7.808157E-2,8.935526E-3,1.0016215E-1,-5.901983E-2,-8.529386E-2,1.1005415E-2,-6.134415E-2,1.08552344E-1,-2.0123833E-1,-7.7984326E-2,-4.6948608E-2,-1.2669448E-2,5.687197E-3,-7.7866875E-2,-1.0212339E-3,4.084859E-2,3.0817618E-4,1.5830217E-3,-4.3195236E-2,8.588205E-2,-6.663751E-3,-2.1851135E-3,1.3628942E-1,3.584312E-2,-6.995392E-2,-4.1417424E-2,-2.5581214E-1,-8.448042E-2,-8.6748235E-2,-4.4678524E-4,-5.1136307E-2,2.452282E-1,7.3731124E-2,-4.2537132E-1,1.4699124E-1,-1.3648075E-1,3.1827055E-3,-1.7359348E-2,6.2738076E-2,1.18826084E-1,6.59335E-2,3.117312E-2,-2.3083657E-2,2.4578464E-3,-1.4357947E-1,1.3928042E-1,-1.5904564E-1,1.1983214E-1,-2.1136658E-1,-5.112965E-2,2.3311882E-4,9.513979E-2,-3.560756E-2,-7.565146E-2,-4.8800535E-3,-8.330584E-2,-2.567693E-1,8.1616096E-2,3.8155664E-2,-2.9288532E-2,1.1130946E-2,-5.220438E-2,3.168683E-2,2.1436935E-2,5.526592E-2,1.6295636E-1,1.6041985E-1,-9.845456E-3,1.4916773E-1,8.7621614E-2,2.070085E-2,3.6848076E-2,-1.1413065E-2,6.46953E-2,2.1305721E-2,7.79345E-3,-3.9643997E-1,-7.0475414E-2,-2.2226472E-1,2.2674546E-2,3.0980853E-2,5.348273E-2,-4.7528803E-2,-8.425422E-3,-3.2665896E-1,1.00210875E-1,3.4865223E-2,3.0186418E-2,6.727606E-2,-9.684944E-2,-3.5458893E-2]},"name":"gblinear"},"learner_model_param":{"base_score":"6.084656E-1","boost_from_average":"1","num_class":"0","num_feature":"500","num_target":"1"},"objective":{"name":"reg:squarederror","reg_loss_param":{"scale_pos_weight":"1"}}},"version":[3,0,2]}