{"learner":{"attributes":{},"feature_names":[],"feature_types":[],"gradient_booster":{"model":{"boosted_rounds":10,"weights":[-2.2868766E-2,-5.265244E-2,1.7210323E-1,5.649731E-2,2.0290716E-1,6.529426E-4,-1.19843856E-1,3.6147248E-2,-5.6881472E-2,2.8370079E-2,-3.7460633E-2,-9.677075E-2,-4.516991E-2,-1.243011E-1,1.4834374E-1,-4.7549114E-2,-7.735265E-2,4.179542E-3,-1.2420688E-1,-3.496493E-2,-7.2616294E-2,-1.9979316E-1,2.1354917E-2,4.9134545E-2,7.994634E-2,-1.3494344E-1,1.00489125E-1,-2.3772046E-2,7.897137E-2,-1.4594178E-2,-1.2521239E-1,-2.881244E-2,-7.677203E-2,-8.833788E-2,5.7609733E-2,4.329209E-2,1.1897186E-2,6.408009E-3,1.3785398E-2,-4.7159933E-2,2.2467697E-2,1.5447142E-3,2.9501362E-2,1.0200206E-2,4.046927E-2,-5.631771E-3,-1.4953596E-2,1.9834977E-2,1.6400127E-2,3.1412587E-2,1.5861511E-2,9.162333E-3,7.8231245E-2,4.8338823E-2,-1.2592917E-2,1.1563167E-1,-3.8858037E-2,6.5815507E-4,-2.028485E-2,7.3055156E-2,2.0808795E-2,-1.7135559E-2,2.0434048E-2,-1.2829146E-2,7.148951E-2,-3.280661E-2,3.7166511E-3,2.13732E-3,2.0560531E-2,9.6804775E-2,2.1703426E-2,-9.393433E-3,-2.6521287E-3,3.387038E-2,-2.3612791E-1,4.9414327E-3,-2.3593357E-2,4.02285E-3,-2.21127E-2,-3.0965412E-2,-1.3865001E-1,-2.2697005E-2,1.097942E-4,1.72418E-2,1.068051E-2,1.6446894E-2,9.6456725E-3,-1.779371E-4,-6.897002E-2,6.938467E-3,9.843451E-2,5.137917E-2,-1.0211919E-2,-1.726187E-2,2.541835E-2,1.0792022E-2,-1.1525583E-3,1.30397305E-2,-1.9850701E-2,1.635405E-2,1.0493042E-1,1.0232915E-2,1.2497084E-1,3.0454438E-2,1.13260716E-1,5.2675713E-2,5.7216972E-2,6.0872536E-2,2.6248004E-3,8.1727724E-4,-1.3323381E-2,-3.8154583E-2,-1.7405864E-2,-5.587127E-2,4.220398E-2,6.541577E-2,1.2665522E-1,7.817666E-2,-2.249825E-2,-1.8411089E-2,6.863263E-3,3.405092E-2,-3.4350634E-2,2.7106896E-2,1.13492325E-1,-1.8783454E-2,7.1573384E-2,6.839841E-2,7.781257E-3,-1.2764193E-1,-6.05631E-2,-4.5669664E-2,-7.778809E-2,1.3874982E-2,4.5071468E-2,-3.975792E-3,1.03022745E-2,4.3422405E-2,2.296297E-2,3.9622128E-2,-3.7509676E-2,1.3481316E-1,1.3209589E-2,-1.0220404E-4,1.4754353E-2,-6.2809885E-3,7.4208174E-3,2.0153942E-2,-1.0333477E-2,2.0107571E-2,-5.111464E-2,1.2027242E-2,-1.1109495E-1,-6.1316177E-2,3.309633E-2,3.20981E-2,-4.2258944E-2,1.0335726E-2,2.1415854E-1,-1.3095894E-1,-1.4246346E-1,3.945231E-2,3.4720812E-2,5.8765825E-2,1.3086848E-1,8.159158E-2,2.4485921E-2,4.8974004E-2,-1.9162124E-3,-4.099959E-2,-4.772442E-2,2.4390927E-2,3.8571976E-2,9.198997E-3,1.7780706E-2,-6.3403393E-3,3.2427534E-2,-2.905522E-2,5.172862E-2,-7.4084657E-3,8.344055E-2,4.4263406E-3,1.6072337E-2,2.8732574E-2,3.373424E-2,-3.853759E-2,1.0189374E-3,2.040011E-3,2.003431E-2,-1.9773027E-2,2.408034E-2,2.1162966E-2,-3.6621574E-2,7.1088867E-3,-2.2499992E-2,4.2739507E-2,1.9753836E-2,8.952346E-3,-1.3206593E-2,-1.7477993E-2,8.165306E-2,1.7592374E-2,-1.01972725E-2,-2.6004114E-3,5.969538E-2,-2.0140402E-2,-2.1506479E-2,5.1939867E-2,1.4818169E-1,1.19403064E-1,-2.9887201E-2,-4.5386415E-2,1.6982147E-2,3.704756E-2,5.7949796E-2,-5.528497E-2,-6.6670016E-3,1.7516656E-2,-7.333687E-2,-1.1086027E-3,1.737601E-2,1.6131364E-2,1.9706497E-3,1.9077372E-2,7.7959104E-3,-4.8553985E-2,2.2823573E-3,6.775822E-2,2.080598E-2,-3.997225E-2,5.3717224E-3,2.0546366E-2,-1.0771093E-2,4.394312E-2,8.952374E-3,-3.210721E-3,7.784355E-2,2.0998667E-3,4.145879E-2,-2.9566443E-2,-1.023939E-3,2.4666475E-2,1.665995E-2,-1.259787E-2,2.2296287E-2,9.927347E-3,-9.875223E-3,3.1305313E-2,-3.291724E-2,-2.0963341E-2,2.9029418E-3,-5.154068E-2,-2.5534907E-2,-3.194417E-2,-8.609583E-2,2.8669655E-3,-9.1400575E-3,-9.871964E-3,-8.3850715E-3,-6.43688E-2,1.01791425E-2,-2.7225653E-2,6.554319E-3,2.6603423E-2,-1.983865E-4,-1.6826436E-2,-3.5562556E-2,4.774739E-2,6.099869E-3,3.2772347E-2,1.5675623E-2,-3.233034E-2,-2.2432327E-2,-1.0663605E-2,-2.428531E-2,4.2634206E-3,-1.3258826E-2,9.14626E-3,3.45921E-2,4.390354E-3,-1.5791063E-3,-6.0115308E-3,-6.0676564E-2,-2.0946018E-2,2.819925E-2,6.591288E-2,-2.1441458E-4,1.081658E-3,1.5765894E-2,-1.3034935E-2,1.3149901E-2,3.9224396E-3,3.5770092E-2,2.8175604E-2,-1.2223873E-2,-3.5540098E-3,3.627689E-2,1.5074648E-2,-1.6416828E-1,7.0848987E-3,-4.153655E-2,-4.3721784E-2,-1.5330976E-1,-7.981149E-2,4.5015853E-2,-9.743861E-2,-4.7186E-2,-2.1581043E-2,1.100172E-2,-4.4668745E-3,-4.0067166E-2,-8.532759E-2,-1.4197091E-2,1.8750414E-2,-4.458307E-2,4.310678E-2,3.9779056E-2,1.1175586E-3,1.3991795E-2,2.9401416E-2,8.27239E-3,-2.6369696E-3,6.7908634E-3,-1.4381386E-2,6.585575E-3,-2.9504677E-2,-2.7287344E-2,2.9410062E-2,-1.294202E-1,1.2808011E-1,-5.6376273E-4,-3.8116824E-2,-2.9940913E-2,-4.0151943E-2,-5.8190107E-2,2.0623136E-2,8.726548E-2,2.4073167E-2,6.3744998E-3,3.5561536E-2,3.9667394E-2,-7.07417E-3,3.216324E-2,4.773764E-3,3.3907632E-3,-6.671992E-2,7.354493E-3,-2.6467882E-2,-1.0098447E-4,7.535614E-2,-8.950855E-2,-7.255788E-3,-1.0735844E-2,7.754201E-3,-1.7634736E-2,7.763876E-2,1.0247297E-2,-4.123887E-2,-4.0567843E-3,-1.1211313E-1,-2.8983017E-2,-2.6013714E-4,-1.7307453E-2,7.5112693E-3,2.0288272E-2,-4.4559225E-2,-1.6945662E-2,-1.9197168E-2,1.5393369E-2,7.228104E-2,2.8988589E-2,8.774035E-3,-5.577992E-2,2.1934737E-2,3.7714108E-3,9.046465E-3,-2.9296162E-2,1.1035826E-2,-3.1481966E-2,-3.8619082E-2,-8.755967E-3,1.7181695E-2,8.5434355E-3,-3.8307533E-2,1.437269E-2,1.1385631E-2,-1.8805776E-2,-1.1319103E-2,1.1618657E-2,6.4152464E-2,-1.1354967E-2,-4.6115206E-3,-3.4045544E-2,-1.1507719E-1,-1.6695559E-2,-1.3924271E-2,-8.653364E-4,5.8731595E-3,-1.4470675E-2,1.5127064E-2,-1.116137E-1,1.2928997E-1,-2.1472453E-1,6.275313E-2,-1.7436753E-1,-8.258365E-2,1.4514846E-1,-1.5968123E-1,7.21738E-2,1.6091451E-1,1.15570836E-1,-2.1516696E-1,8.675951E-2,2.562277E-1,-6.47719E-2,-1.0113878E-1,-1.2215389E-1,-1.948105E-1,-1.5238139E-3,7.797667E-2,1.3641119E-1,6.1128654E-2,1.5229711E-3,7.14372E-2,-2.0007342E-2,1.328318E-1,-1.4282586E-2,1.5981962E-3,-1.2275238E-2,2.3146915E-1,-3.8356E-2,1.1292075E-1,-1.2503739E-1,9.608752E-2,-1.9899213E-3,-1.959204E-1,-5.756494E-2,-9.2815034E-2,-1.6106853E-1,-6.9714226E-2,-2.7479319E-2,1.8575042E-3,1.2325971E-1,-2.4495479E-2,-2.6472129E-2,-8.745664E-2,-2.8169807E-2,1.6180797E-2,5.538013E-2,5.165502E-2,-1.0414385E-1,1.9128895E-1,1.0208108E-1,1.5728363E-1,-9.742072E-3,-4.9318828E-2,-4.517189E-2,-6.861024E-2,-2.7026635E-2,-1.6476277E-1,-7.0057556E-2,-1.7785178E-2,4.5687994E-3,2.5916314E-2,-5.2865565E-2,-1.1105067E-2,-1.3390017E-1,6.772583E-2,2.472673E-2,-1.9812273E-2,-1.619219E-3,6.556673E-2,1.0224323E-1,2.6862863E-3,2.7447972E-3,-4.5621045E-2,2.0008676E-2,-6.3934196E-3,1.7091176E-2,9.76802E-3,-4.6973936E-2,5.1023673E-2,-2.2283461E-2,6.0520396E-2,-1.031362E-2,5.266621E-2,-1.6489971E-2,-3.165624E-2,4.5333277E-3,3.6599148E-2,-6.2353467E-3,1.0382343E-2,-2.2498801E-2,-1.3410778E-2,-3.2210539E-3,3.4390844E-2,-1.0473931E-1,-9.386288E-3,-2.6224846E-2,5.8236765E-3,-2.803391E-3]},"name":"gblinear"},"learner_model_param":{"base_score":"5.1578945E-1","boost_from_average":"1","num_class":"0","num_feature":"500","num_target":"1"},"objective":{"name":"reg:squarederror","reg_loss_param":{"scale_pos_weight":"1"}}},"version":[3,0,2]}