{"learner":{"attributes":{},"feature_names":[],"feature_types":[],"gradient_booster":{"model":{"boosted_rounds":10,"weights":[1.7162271E-4,9.4476985E-5,7.5959424E-6,-8.34522E-5,-1.2805037E-5,-1.5655896E-5,2.1718765E-4,-3.066726E-5,-1.3180386E-4,3.6172307E-5,1.283992E-4,7.73977E-5,-1.2379618E-4,3.5019104E-5,-1.1651102E-4,7.036899E-5,-8.574598E-5,1.4103379E-4,6.807999E-5,1.5970758E-4,8.6423075E-5,1.2497455E-4,9.123361E-5,7.0649226E-6,1.1788574E-4,-1.0056159E-4,-1.2168325E-4,-2.2398278E-6,1.9753665E-4,7.201285E-5,1.2349192E-5,1.5908045E-4,1.4610359E-4,3.9319828E-5,8.096787E-5,-7.915804E-5,-3.14376E-5,2.5851708E-5,-1.4302016E-5,-1.021694E-4,-1.851205E-5,-2.0972233E-4,-1.0479171E-4,1.2837388E-4,-1.4013973E-4,-1.6027686E-4,7.878822E-5,-8.3765226E-5,-1.3902978E-4,1.5565485E-4,-4.3117787E-5,-5.881765E-5,-7.751897E-5,1.3138076E-4,4.5182132E-5,-8.421784E-5,2.4191506E-5,-1.561889E-4,-1.3206525E-4,8.354238E-5,3.5419114E-5,-3.7894602E-5,2.2388843E-4,-1.5101189E-4,1.5842508E-5,4.5580786E-5,-1.5375172E-4,-1.7547605E-4,-1.219596E-4,-1.5659918E-5,1.14315735E-4,1.6404159E-4,-9.2056194E-5,-2.7365804E-5,6.638272E-5,6.9312715E-5,-3.181381E-5,9.223885E-5,1.1740075E-4,-6.980882E-5,1.1270078E-4,1.1754576E-4,-7.743846E-5,-4.4798722E-5,9.4198665E-5,9.538313E-5,-7.002134E-5,1.08210625E-4,-9.6493866E-5,-1.3424232E-4,-9.611134E-5,1.05563246E-4,-8.14939E-5,1.1419741E-4,7.993762E-5,-1.0320132E-4,-1.5249867E-4,6.795234E-5,1.0810228E-4,8.6451066E-5,-1.9086145E-4,1.133175E-4,-9.138456E-5,-7.929024E-5,5.535379E-5,1.10044966E-4,-1.4165964E-4,-1.0246104E-5,1.0215246E-4,7.424297E-5,-1.4156276E-4,-3.9743176E-5,1.6615188E-4,-8.4241954E-5,1.7655402E-4,-1.2262788E-4,1.0649903E-4,1.2317147E-4,-7.814118E-5,-3.6340363E-5,1.2921297E-4,-1.4364973E-4,-1.3425818E-4,-1.6931228E-4,-2.4301113E-4,-1.15042276E-4,-1.6090019E-4,-9.469294E-5,6.571641E-5,-8.916388E-6,-9.403658E-5,1.2104018E-6,-2.0875546E-4,1.2397819E-4,-4.0410534E-5,7.987815E-5,1.06993684E-4,-3.7445036E-5,1.4727286E-4,-8.857528E-6,8.67989E-5,7.177286E-5,-7.974242E-5,-7.42006E-5,2.4411684E-5,1.8187093E-4,-1.4532087E-4,-1.206854E-4,1.0507301E-4,9.2154674E-5,-1.5345043E-4,2.1194066E-4,-1.8117516E-4,-5.404534E-5,-4.1371244E-5,-1.4699624E-4,-1.1613177E-4,-1.5467996E-4,-1.1688896E-4,-4.1944553E-5,1.0875129E-4,-1.7203398E-5,1.06166415E-4,2.5565436E-5,-1.5681957E-4,8.215165E-5,1.8671533E-4,2.1268104E-4,-1.3179578E-4,1.0158071E-4,-8.15497E-5,-1.557346E-4,1.474002E-4,-7.606524E-6,1.70012E-4,-8.259105E-6,-2.5679314E-5,5.774573E-5,5.547187E-5,1.7732944E-4,-1.0602776E-4,-1.5017572E-4,8.959322E-5,1.4403077E-4,-7.084253E-5,7.094325E-5,1.8001391E-4,-6.299932E-5,-1.411451E-4,-2.1768702E-4,1.0695167E-5,1.07586544E-4,-6.087357E-5,-9.3911265E-5,-1.309893E-4,-2.4484987E-5,-4.1713258E-5,1.2416634E-4,-1.4033772E-4,6.4990454E-5,1.1969457E-4,2.1674657E-4,-1.5529772E-4,1.3987617E-4,-7.889312E-5,-6.218362E-5,1.17267846E-4,-3.3150744E-5,8.639491E-5,4.6301728E-5,4.3516735E-5,7.741244E-5,8.527578E-5,-4.1487452E-5,2.0037045E-5,-1.2760876E-5,1.6093017E-4,-6.411305E-5,1.2623375E-4,-1.4208189E-4,1.6726536E-4,-5.005605E-6,3.7366044E-5,-5.643601E-5,1.5533398E-5,-9.0288886E-5,-5.2875843E-5,-1.4512989E-4,-1.1017968E-4,-5.9041122E-5,-1.4583032E-4,-1.1622716E-4,-9.303101E-6,7.035553E-5,-1.2653957E-4,5.5292236E-5,-2.1675245E-4,-4.421643E-5,-1.9372578E-6,1.270249E-4,-1.377948E-4,1.8593416E-4,-1.1022491E-4,1.1805536E-4,-5.2442283E-5,-1.411645E-4,7.664583E-5,-2.007195E-5,-4.7961594E-6,-9.589887E-5,-1.7959255E-4,1.5185017E-4,1.7159586E-5,-5.6261048E-5,2.7252778E-5,5.7483044E-6,-1.6532702E-5,-1.1930212E-5,-1.11459194E-4,2.6306682E-4,1.4625881E-4,-6.214045E-5,1.0717954E-4,2.4360072E-5,-1.1007722E-5,-1.6630836E-5,1.0782866E-4,-5.0207098E-5,1.8902261E-4,-8.856516E-5,1.3868239E-4,1.8732851E-4,5.9911913E-6,-3.747013E-5,1.2058009E-4,-7.38312E-5,-1.02339065E-4,-1.5765674E-4,-7.198707E-5,-9.3295064E-5,-1.3149329E-4,-1.0862911E-4,9.802996E-5,8.840305E-5,-1.361418E-5,-1.3511855E-4,7.349031E-5,1.3187902E-4,-1.866026E-5,-4.5495566E-5,-8.075711E-5,-9.9695106E-5,4.1998548E-5,2.489279E-4,1.14829745E-5,-3.4327637E-5,3.6982743E-5,-3.4137578E-5,3.1081287E-5,-1.2325489E-5,7.2846844E-5,1.05626386E-4,1.315336E-4,-1.03977625E-4,-8.334E-5,-5.2597963E-5,-5.7618654E-5,3.23742E-5,6.240344E-5,-1.0012448E-4,9.135142E-5,1.06360545E-4,1.21319776E-4,1.2882758E-4,3.3635963E-5,-3.018367E-5,1.5416929E-4,-1.2350871E-4,-1.5339129E-4,-1.6341014E-4,4.5052648E-6,1.2029886E-4,7.201436E-5,-8.57915E-5,-6.572135E-5,5.7912832E-5,-7.69526E-5,6.156145E-5,7.8508885E-5,-1.9452013E-5,1.4677319E-4,8.182931E-5,-1.479782E-4,-1.10241E-4,2.6307527E-5,-8.804857E-5,-1.2264492E-4,-8.696413E-5,2.6886066E-5,-6.8298505E-5,-9.665338E-6,-8.977461E-5,1.5000338E-4,1.8285107E-5,-1.4486714E-4,-1.19721575E-4,2.5144E-4,-8.630714E-5,6.789234E-5,4.399378E-5,-1.9400578E-4,-4.128036E-5,4.261402E-5,4.9700153E-5,-1.7829616E-4,-8.484618E-5,-5.4466156E-5,-1.6736063E-4,-4.6459147E-5,-1.4829409E-4,-1.344821E-4,-1.3234257E-4,1.0255431E-4,6.270312E-5,-1.2526891E-4,-4.201788E-5,1.5317079E-5,2.2975571E-5,-6.1613304E-5,-1.814588E-4,1.4049636E-4,4.187807E-5,4.4913355E-5,1.3618823E-4,1.1604159E-4,-1.18748285E-4,-7.221463E-5,-1.4962493E-4,8.8104796E-5,-1.2988437E-4,1.74507E-4,6.591595E-5,1.4876519E-4,3.008323E-5,-6.1359366E-5,9.36161E-5,8.3458115E-5,8.06118E-5,6.21863E-5,5.6248628E-5,7.0156E-5,1.4343619E-4,-5.8013808E-5,-1.2736942E-4,-2.9574045E-5,-8.757306E-5,9.159154E-5,-3.6543966E-5,3.8003545E-5,1.1673634E-4,-2.3723625E-4,-7.95873E-6,-1.00796504E-4,1.01598285E-4,1.4198436E-4,-1.210989E-4,1.1080166E-4,1.09920824E-4,-5.7427216E-5,3.5172357E-5,-7.866758E-5,2.2899754E-5,8.275253E-5,-1.4767212E-4,7.278593E-5,-6.840086E-5,-7.7005854E-5,1.2139759E-4,8.345895E-5,1.1280917E-4,-8.051236E-5,9.718895E-5,-1.5366686E-5,6.545878E-5,-8.4607E-5,-1.3114246E-4,-3.6251724E-5,1.8336883E-4,-1.5144194E-4,1.0753084E-4,7.092548E-5,1.1820334E-4,8.752216E-5,-9.246712E-5,1.115884E-4,1.8508181E-4,1.5605336E-4,-1.2588156E-4,1.8038014E-4,-1.9449662E-4,6.44751E-5,9.208892E-5,-1.965384E-5,-2.06398E-4,7.2112955E-5,1.578803E-4,-9.0675465E-5,1.12118985E-4,-6.406283E-5,-2.957309E-6,7.6944765E-5,2.4488245E-4,6.724207E-5,-1.9099758E-4,1.6566334E-4,3.498513E-5,-7.332631E-5,1.7644718E-4,1.1081044E-4,4.9887607E-5,-8.5018066E-5,6.910899E-5,-8.591265E-5,-6.995039E-5,2.0320814E-4,1.00919846E-4,4.7967667E-5,8.959933E-5,-7.351439E-5,9.828544E-5,-1.415905E-4,-8.251625E-6,3.4660512E-5,1.0790662E-4,-8.3943174E-5,-8.211678E-5,1.8897774E-5,6.597199E-5,1.415066E-4,-1.6723925E-4,-7.1885166E-5,5.6429748E-5,-8.272242E-5,2.9186012E-5,-1.20370954E-4,-7.4671734E-5,1.1475045E-5,5.3791715E-5,8.5898486E-5,-2.6326666E-6,1.4821367E-4,1.3158562E-4,-3.222336E-5,-5.0477054E-5,-4.311481E-5,-9.000362E-5,6.046787E-5,-1.09789195E-4,1.22025325E-4,-1.442706E-4,2.2802807E-2]},"name":"gblinear"},"learner_model_param":{"base_score":"2.74E-2","boost_from_average":"1","num_class":"0","num_feature":"500","num_target":"1"},"objective":{"name":"reg:squarederror","reg_loss_param":{"scale_pos_weight":"1"}}},"version":[3,0,2]}